solver_type L2R_LR
nr_class 2
label 0 1
nr_feature 108609
bias -1
w
0.01625775116879516 
0.2062875844181078 
-0.02453595450839842 
-0.02093343268454222 
0.1760828673804559 
0.3102411853592723 
-0.004382211040152358 
-0.01746823162582686 
0.0516880989910495 
0.1178826338976176 
0.1508671261683517 
-0.01800068995273101 
-0.0580244382790329 
-0.01931184027815156 
0.1019577172246814 
-0.08711862747282992 
-0.01630880962847794 
0.005144860527882256 
0.07366870635900712 
0.01052636267655549 
0.0679278171680015 
-0.008041005657230222 
0.00891558005040281 
0.01784514488298008 
0.1212978239873635 
0.0048182367490929 
0.03930328190798021 
-0.04838703234144098 
0.04259390345332212 
0.02159263826707169 
-0.004792609609858128 
-0.0003092902340636069 
0.006747628161844971 
0.01421595478919073 
0.07092225217604566 
0.0236804351917312 
-0.002158333275901033 
-0.01059887612097207 
-0.003533323048793322 
0.002272361906761367 
0.01438729782305029 
-0.005469391043738523 
0.03834022335502599 
-0.02783490135283161 
0.02381358612728708 
0.1393646999074112 
0.006747628161844971 
-0.004746905733303147 
-0.004036317682898439 
-0.00421347931603517 
0.0915711221322372 
-0.0106484950803329 
-0.001252537449269844 
0.05083211435757183 
0.006747628161844971 
0.009383751842380177 
0.01867124263030604 
0.009576252746130474 
-0.04966755702042413 
-0.007123217952216536 
-0.001395868461663654 
0.006747628161844971 
-0.02076918065735919 
0.006479335005017395 
0.006747628161844971 
0.01251818644138085 
0.0126324154256373 
0.003100021887910571 
0.006747628161844971 
0.01073842961157486 
0.1128784911176377 
0.006747628161844971 
-0.003036871280234221 
0.005300376357853135 
0.002738319998357411 
0.007339645457368382 
-0.06846417209533891 
0.07629584481988021 
0.0159218519276096 
0.02066841624502421 
0.006747628161844971 
0.2119705432164961 
0.006747628161844971 
0.006747628161844971 
0.0002725389080886448 
0.007077191777332089 
0.3356322540841431 
0.0005429315510824897 
-0.009485390702925863 
-0.0089638056632689 
0.005821736719149003 
-0.01081248757784752 
0.02109965624583132 
0.02564933561996671 
0.006747628161844971 
0.0479559956291281 
-0.00183269938994324 
0.01581939366377438 
-0.01887858635571045 
-0.003055072005169575 
0.02941395370726003 
0.003991459305977689 
0.001010574354454476 
0.06913303827763125 
0.001010574354454476 
-0.0003616012011078663 
-0.03597136234098914 
-0.006615653086137591 
0.05870700876517634 
0.009709937891415544 
0.05245507722205719 
0.08574147411327132 
0.01480861315311348 
-0.002394972990061417 
-0.03900295870184285 
-0.006677596862411024 
0.001010574354454476 
-0.01744162066333757 
-0.009803611278908079 
-0.05999457767202369 
-0.03134660246296413 
0.07671690021770956 
0.006935272867685917 
0.0306724539413319 
-0.03847353179247992 
0.05213488439038091 
0.04098130999928472 
0.06271023172620525 
0.03368613677534382 
0.002861975214050658 
-0.003424858824098535 
0.001010574354454476 
0.02968999872664489 
0.04274695706635691 
0.005632766262482572 
0.001881232492107884 
-0.1922441803373349 
0.08250609754615373 
-0.1456045541619977 
-0.01691064933202452 
0.09050436405003312 
-0.02107283966516485 
-0.0006728226861717184 
-0.1073250748459091 
-0.01775506305481049 
-0.004210228800618092 
-0.03553349664432574 
-0.06519070535275279 
0.005971962369374386 
-0.02875693034051449 
0.03728325674046436 
0.0125898945136473 
0.08533774556687825 
-0.03626075732436169 
0.0380026224929744 
-0.003514639217744739 
-0.07346099705422357 
-0.01303268464904674 
0.0577836418787905 
-0.04967670598579799 
0.01499707457250536 
-0.0329617116998463 
-0.0182379192507375 
0.001010574354454476 
0.03063833513413302 
-0.03777997748469228 
0.001010574354454476 
0.001010574354454476 
0.01120459617327823 
0.005956906564203919 
0.001010574354454476 
-0.01602704834693713 
0.001010574354454476 
-0.02117212444788443 
0.001010574354454476 
0.001010574354454476 
0.001474901570441739 
0.01032950636114635 
0.003014595966727624 
0.05019323169421826 
0.001010574354454476 
-0.0592255318220033 
0.08673787657946232 
-0.0109579694112829 
0.001010574354454476 
0.04929956607305438 
0.001010574354454476 
-0.001509979377187234 
0.00217252073834486 
0.001010574354454476 
0.04959968047770033 
0.01983101659360963 
0.001010574354454476 
0.001210843610177716 
0.004425293995056067 
0.03202971548737141 
0.02357006293477434 
0.001010574354454476 
0.04504685664641069 
0.01241835974863432 
0.03657230245153038 
0.01098954986229797 
0.01963027308215992 
-0.02297424767187694 
0.003246528089710586 
0.001010574354454476 
0.001010574354454476 
0.005019074735437098 
-0.0002409059808743177 
0.01607534875202605 
-0.004099472864163404 
0.01506099939171911 
-0.06097320556802393 
-0.001847302710036351 
0.001010574354454476 
0.08727000579304608 
0.001010574354454476 
0.001010574354454476 
0.001010574354454476 
0.001010574354454476 
0.05526546454022027 
0.001595203120944055 
-0.004354446923522461 
0.001010574354454476 
0.005078761242460028 
0.005885194259179134 
0.003491264988802005 
-0.003677527631178063 
0.001010574354454476 
0.001010574354454476 
0.008157945224724621 
0.003991459305977689 
0.001010574354454476 
-0.006410496036187679 
-0.004781556732007672 
0.0370283369413825 
0.001010574354454476 
0.001010574354454476 
0.01194018989936901 
0.001010574354454476 
0.00238698575845573 
-0.006677596862411024 
-0.008860423444092814 
0.01369408917523242 
-0.001847302710036351 
0.001010574354454476 
-0.009507866220142014 
0.001010574354454476 
0.02320094318278702 
0.02501024231683882 
0.001010574354454476 
0.01776873856652094 
0.001010574354454476 
0.001010574354454476 
0.001399510331532165 
0.001010574354454476 
0.008260788544476729 
0.002902212473692065 
0.001010574354454476 
0.001432893304980638 
-0.008683714461282598 
0.001010574354454476 
0.01266937877878838 
-0.001107029309065272 
-0.01171046480228174 
0.01240257894354732 
0.04993337634832098 
0.005812718756332613 
0.007958758335910792 
-0.01254994453050142 
0.0139323883708744 
-0.1180086217038235 
0.009488974382097488 
0.05046095211836241 
0.02426710285165451 
-0.04501265818362461 
0.4792711103946872 
-0.007892698702390236 
0.05740981094694721 
0.04827252736826608 
0.005812718756332613 
0.007196733749951708 
0.0605518423145097 
-0.001367867393823565 
0.09590707135247498 
0.00400466894561766 
0.002172171713262999 
-0.008905140709848438 
-0.1429477598649752 
-0.01963588514536459 
0.01753767578335489 
0.03119950622151162 
-0.02309925127247715 
0.05181795410033663 
0.02983263250742854 
-0.02638996769429863 
0.01097098414305439 
0.01047307001116287 
-0.01351552231191469 
0.005812718756332613 
-0.002721212057298471 
-0.04401346300353098 
0.007026445922612558 
0.005812718756332613 
0.005812718756332613 
0.0009320442966848513 
0.005812718756332613 
0.005812718756332613 
0.06951132106706188 
-0.03505688000768382 
-0.001606977393630263 
-0.01510955608815268 
-0.01107828669981221 
0.1135397381390289 
0.005812718756332613 
-0.003839166716196188 
0.04054305303586261 
0.006675132738889131 
-0.04828870223060075 
0.005812718756332613 
0.01518910198984744 
0.01075247358727689 
0.005812718756332613 
0.02985798759774903 
0.005812718756332613 
0.005812718756332613 
0.03385442916372199 
0.005292235186241846 
-0.02227891257096699 
0.005812718756332613 
-0.001667268617863136 
-0.01210813320849324 
0.005812718756332613 
0.01589018237928407 
0.04061645964596455 
0.0007573640092756771 
0.007172954968090879 
0.009488974382097488 
0.005812718756332613 
0.005094906330824893 
0.01859750458741094 
0.002340639507831316 
0.008041245242651129 
0.005698403960534822 
0.04819999733113643 
0.005812718756332613 
0.005812718756332613 
0.005812718756332613 
0.01383787494781594 
0.07176560843189397 
0.01668545068410174 
0.01524706975299456 
0.01628043726973572 
0.090664571036155 
0.01996899632022887 
0.005812718756332613 
0.0001433405956662502 
0.01238660891713724 
0.005812718756332613 
0.005378142329006607 
0.02748949348720627 
0.004905640871322723 
0.02454047206934025 
0.005812718756332613 
0.02320045977268966 
0.01073547700676267 
0.1317504842626359 
0.1327987366596169 
-0.06088509227139165 
0.01029111992499209 
0.02117778204970765 
0.07755194749544354 
0.009492538966396133 
0.0247824150521809 
-0.05256405205898024 
0.008994653403657609 
0.00642254398437588 
0.02320045977268966 
0.05593032151790388 
0.02425888994583884 
0.02320045977268966 
0.01483213210159347 
0.0002594655091098878 
0.02320045977268966 
0.02320045977268966 
0.02320045977268966 
0.02361771662172652 
0.09027849542838744 
0.01925324189603825 
-0.005094396893745317 
0.04460242848892479 
0.02320045977268966 
0.02320045977268966 
0.02320045977268966 
0.04967812710087584 
0.01634716329887597 
0.03979413125871069 
0.03545139936933037 
0.07636217797646194 
0.115628121441159 
0.09423816343892816 
0.03840034756685298 
0.05396237224313651 
0.03006616632128422 
-0.05852935998634054 
0.03979413125871069 
0.06003504618925817 
0.05077883031701028 
0.03433368727480776 
0.01450385761440881 
0.06701574569608681 
0.03979413125871069 
0.009734316658214016 
0.03979413125871069 
0.03979413125871069 
-0.04305196595587113 
0.02936207165808372 
0.03468704549194403 
-0.05981367077753452 
-0.03174536116454757 
-0.07285786477775053 
-0.03444212931940536 
0.00685719967675602 
0.05709539028785991 
0.2943190243259912 
-0.03454856559368187 
0.1525600203764116 
0.03480092675613623 
0.03715629790512073 
0.04568958435077668 
-0.04859232388466264 
0.06785057497512954 
0.03807498547725483 
0.0352931950789161 
-0.0178645756295435 
0.04951249263956307 
0.001194877760139304 
0.02926314539005588 
0.02178379385918894 
0.03696623844628834 
0.02712819035316521 
0.03715629790512073 
0.007840682505532196 
0.03715629790512073 
0.009918898167843124 
0.008197202457127165 
-0.01410239401278026 
-0.02777631630269624 
0.1165217505914468 
-0.01331735305933672 
-0.02443155348497811 
0.01151200938271492 
0.00962497077505 
0.0431994422847062 
-0.02658849268018713 
0.1477850155482512 
-0.01343577965909389 
0.01038389516240937 
0.001690091605788385 
0.03548000225983689 
-0.01046903944302661 
-0.07382771275973687 
0.01464638985527805 
-0.03339449940750498 
0.008781588929362984 
0.02572054395855258 
0.03494628294564683 
-0.03689003732723076 
-0.002529636566515282 
0.03270207738307707 
0.01412470870310116 
-0.01002225858897331 
1.338399082915403e-05 
-0.00898314152852113 
0.04701592845517195 
0.0236537495995222 
-0.02007457629776317 
0.009918898167843124 
0.01648143284096255 
0.01257703002597231 
0.004220413427597166 
-0.02456804386130921 
-0.004639105859148457 
0.0105922470853691 
0.007111227353034581 
0.08335172718192993 
0.009927254925794231 
0.004589897578065941 
-0.02565998242850009 
0.02883441602817131 
0.02549794779635743 
-0.02826954463337851 
-0.04165960931491229 
0.01784629824826113 
0.04677340687233791 
0.01983779633568625 
-0.07550349762019924 
-0.04902865198466085 
-0.03821756073775177 
0.009918898167843124 
0.009918898167843124 
0.009918898167843124 
0.02138378170550564 
-0.009698905448821925 
0.009918898167843124 
0.0142728044281288 
0.009918898167843124 
0.009918898167843124 
0.002503989733243442 
0.004273285300569806 
0.009597610144768828 
0.04101848210103438 
0.01758073592991536 
0.009918898167843124 
0.009918898167843124 
0.009918898167843124 
0.009918898167843124 
0.009918898167843124 
0.009033303581920124 
0.009918898167843124 
0.009918898167843124 
-0.01692261605594514 
0.009918898167843124 
0.001935443757194569 
0.0606044667397862 
0.009918898167843124 
0.009918898167843124 
0.009918898167843124 
0.01177032343522042 
0.009918898167843124 
0.009918898167843124 
0.02040517522549421 
0.009918898167843124 
0.067802679135318 
0.009918898167843124 
0.009918898167843124 
0.009918898167843124 
-0.008538049462460907 
0.009918898167843124 
0.003685634660578023 
0.009918898167843124 
-0.009461742177564804 
0.006584928720750722 
0.00416238362756317 
0.006525389113836689 
-0.01003609063559433 
0.08107035032027529 
0.009918898167843124 
0.009918898167843124 
-0.001385319425264305 
0.009165676118646954 
0.007620453713221407 
0.004020485014863472 
0.009918898167843124 
0.009918898167843124 
0.007917542371055259 
-0.04592339308948832 
0.009918898167843124 
0.001725397577527271 
0.0108456940394665 
0.009918898167843124 
0.009918898167843124 
0.02631671508514145 
0.06502263248528316 
0.009918898167843124 
-0.01988340960947794 
-0.001594329287662255 
-0.005464077795401005 
0.01950603342851385 
0.01192084097858873 
0.009918898167843124 
0.009918898167843124 
0.009918898167843124 
-0.002978793859893621 
0.03152300991165188 
0.009918898167843124 
0.1509384082506906 
0.009918898167843124 
-0.01921239426439291 
0.009918898167843124 
0.009918898167843124 
-0.01331735305933672 
0.009918898167843124 
0.009918898167843124 
0.009918898167843124 
0.01004510275884203 
-0.02641824422943684 
-0.01941227840754101 
0.009918898167843124 
0.005039373921946607 
0.02298491002307044 
-0.07507247465784923 
-0.01914528148514012 
-0.01150249024563108 
0.03262815879689941 
0.03058370942058138 
-0.009541700984329243 
0.01153110416475568 
0.141617307391622 
0.04241545066862985 
0.02165187042456032 
0.08366543750899606 
0.03608286307275783 
0.0314695070025152 
-0.003242021142959448 
0.09070310237630254 
0.01939031271826731 
0.009468081125660811 
0.03021723726585368 
0.01516582723495261 
0.03402920526003891 
0.01766115701303515 
0.07602744227435536 
0.03994232236532765 
-0.01784942416239993 
0.009468081125660811 
-0.03281381643037951 
0.1022337352057247 
0.007557446417072655 
0.021061793756079 
0.00382630105199895 
0.009468081125660811 
0.009468081125660811 
0.009468081125660811 
-0.004690496297068531 
0.2107618695946776 
0.009468081125660811 
0.009468081125660811 
0.009468081125660811 
-0.004323444878456054 
0.005605308889617077 
0.03540400293987169 
0.006517492096044449 
0.006491480095075454 
0.004097085614003926 
0.009468081125660811 
0.03025433523565694 
-0.005523740359497931 
-0.05933528767378018 
0.01020043523050729 
0.1096434936739902 
0.03821104531958959 
-0.00374051735017199 
0.009468081125660811 
0.01766115701303515 
0.009468081125660811 
0.02250521214192812 
0.009468081125660811 
0.009468081125660811 
0.001080571802860463 
0.009468081125660811 
0.009468081125660811 
-0.02005729353839268 
0.009468081125660811 
0.01966477752308517 
0.03847186009618906 
0.01227748015472297 
-0.0146433979045667 
-0.03364304500634881 
0.1177336715696996 
0.1292661798647139 
-0.002750034302750102 
-0.01029662512001934 
0.05088230004749345 
0.06603480894844269 
0.002870631045040028 
0.02375403352727233 
0.02020243372612027 
0.02396471763694173 
-0.003121391433886219 
0.04796180546369581 
0.01428893806811113 
0.02375403352727233 
0.02375403352727233 
0.01099669866959297 
0.02375403352727233 
0.02375403352727233 
0.009087012940556321 
-0.02107347782742107 
-0.01696990989058635 
0.02375403352727233 
0.0192598992973079 
0.02375403352727233 
0.02375403352727233 
0.02375403352727233 
0.02375403352727233 
-0.02451142744291941 
0.01195217738442755 
0.02375403352727233 
0.05088230004749345 
0.05106302815229861 
0.003008065012806118 
0.01753290108479363 
0.01760016764757584 
0.02375403352727233 
0.07448321928378961 
0.02158589830588609 
0.02375403352727233 
0.000248293546470992 
0.01551060729172961 
0.02375403352727233 
0.006937318546972745 
-0.006004841143596545 
0.0261217140523525 
-0.03993169520927316 
-0.001555598252802461 
-0.1147834566787899 
0.02863523383932408 
0.0203502188268314 
0.02558899987727444 
0.0206253294426048 
-0.0230411510064085 
0.1215223354940529 
0.02633393179358469 
-0.05846070605868279 
0.03653166953482077 
0.02633393179358469 
0.09556056312975973 
0.05744389729131258 
0.02633393179358469 
0.04189425762373268 
0.02633393179358469 
0.02633393179358469 
0.02633393179358469 
0.02633393179358469 
0.02633393179358469 
0.02633393179358469 
0.02633393179358469 
-0.001964499087305459 
-0.01600972802729075 
0.008472196448402797 
-0.06187429504669884 
0.01425694836326355 
0.008472196448402797 
0.009356063580754654 
0.008472196448402797 
0.01840092925644766 
0.04605826895306647 
2.754455388592346e-05 
-0.02029305170644331 
0.04698502717988236 
0.007498437124083251 
0.008355636722288302 
0.001713860544325158 
0.1483352046630372 
0.02357365116290577 
0.0377318669056827 
-0.03493121607143735 
0.01961420764233168 
0.006777434964378255 
0.01150230710004798 
0.008472196448402797 
-0.04319483222546058 
0.003611529234561374 
0.008472196448402797 
0.008472196448402797 
0.008472196448402797 
0.008472196448402797 
0.009356063580754654 
0.01014766171975139 
0.04031146725206164 
-0.01597557016586496 
0.008472196448402797 
0.02222856054296743 
0.008472196448402797 
0.02847347185009873 
-0.02021469316514524 
0.02084800861066329 
-0.0004648377759343587 
0.008472196448402797 
0.008472196448402797 
0.006953968479788027 
0.05909703906108732 
0.008472196448402797 
0.004294529588784177 
0.01788223522863121 
0.008472196448402797 
0.008472196448402797 
0.008472196448402797 
0.008472196448402797 
-0.03731807749808786 
-0.07524464360876454 
0.009703011919469663 
0.04475334519170399 
0.01653729944420116 
0.008472196448402797 
0.03308549035716946 
0.008472196448402797 
0.0008862838962454891 
0.01548700927148791 
-0.01918244449507805 
0.008355636722288302 
0.008472196448402797 
0.008472196448402797 
0.2021005880934253 
0.008472196448402797 
-0.003924811493928443 
0.0004676206983122128 
-0.001114664082754322 
0.008472196448402797 
-0.02686491832961472 
0.02105528252437597 
0.03586792737911472 
-0.05769339472063771 
0.003982592488696455 
0.02971871803132511 
-0.02993364907650554 
0.009608589876460372 
0.009604979554671159 
0.04635173969077867 
0.1065071446526846 
0.0470731113595822 
0.0548987277423378 
0.009604979554671159 
0.03290057586505978 
0.009604979554671159 
0.009604979554671159 
0.009023430945870936 
0.009604979554671159 
0.009604979554671159 
0.004746026235631495 
0.009604979554671159 
0.0289625009057982 
0.00676348414333002 
0.02094884400031208 
0.009604979554671159 
0.0289625009057982 
0.03765712029828845 
-0.002895431267128336 
0.0289625009057982 
0.001656440752328331 
0.03050462820245628 
0.0289625009057982 
0.009604979554671159 
-0.0005573427368636823 
0.009604979554671159 
0.0289625009057982 
0.064182277761865 
0.0289625009057982 
0.009604979554671159 
-0.002330157081247149 
0.009604979554671159 
0.01091907823429169 
0.02891841841176086 
0.009604979554671159 
-0.009053226088488048 
0.006441289248830746 
0.03236560076834247 
-0.02326517274477037 
-0.1493468780747543 
0.04042796820293307 
0.0593067177514089 
0.06267381532448067 
0.03135692112452823 
-0.0195797613061575 
0.03203529104966982 
0.07268780229394678 
-0.0002441937952755606 
0.003759375535923081 
0.02949407816276447 
-0.009592636503817267 
0.03490868363954581 
0.04558302146546046 
-0.007156651814854889 
0.01215427012525628 
-0.09412321637881108 
0.03768936097245053 
0.03768936097245053 
0.03768936097245053 
0.03768936097245053 
0.0332732104607712 
-0.1347235121203088 
0.02628526222733167 
0.03768936097245053 
0.1159834446144533 
0.03768936097245053 
0.1085502280307076 
0.05064426039706108 
0.03931945509018342 
0.03768936097245053 
-0.04399507625023949 
0.03713825804709706 
0.03434336084597104 
0.03768936097245053 
0.03768936097245053 
0.03768936097245053 
0.008321836742146409 
0.07170974783180054 
0.09519146251639239 
0.01443476681922748 
-0.01183033637060108 
-0.0009281792400175524 
0.05642580620018713 
-0.0008896013549855241 
0.02065148336875231 
0.02065148336875231 
0.06883933046777017 
0.0521855219802176 
0.02209033882301647 
0.02065148336875231 
0.06643770365130951 
0.1176425487184493 
0.02065148336875231 
0.01841951032176034 
0.01637539781944478 
-0.09063013242231757 
0.01969123752366462 
0.02065148336875231 
0.03099675316237354 
-0.05760866979746192 
0.005307720492638137 
-0.045803139726838 
-0.01608487249012591 
0.001931385364199285 
0.003533226422997454 
-0.06069344862679413 
0.01335405707384065 
0.004171525361230545 
-0.002636882949668647 
-0.002916347389432278 
0.0462993971046755 
0.02578578421333291 
-0.01947284050728725 
0.08815956587214516 
0.08917549594316637 
0.001931385364199285 
-0.05212859193655257 
-0.002514995818814255 
0.001931385364199285 
0.005110717837732199 
0.02883935402256036 
0.02680018996215097 
0.009525758378688158 
0.007950928248833837 
0.01143738133711842 
-0.0156576102569019 
0.00678913621916012 
0.001931385364199285 
-0.007034422681665646 
0.03506392287045292 
0.02654819207693281 
0.01014094545873936 
-0.001004324460118207 
0.06458994727328933 
-0.02145983614506932 
0.08000141094637095 
0.002572866300451574 
-0.05588256528190427 
-0.03822152126235125 
-0.01042820111942394 
0.0191152968080784 
0.001931385364199285 
0.002239688922523338 
0.005018993361128053 
0.01195003562060748 
0.008822102407480608 
-0.005971029650641502 
0.001931385364199285 
0.0003105216798652011 
0.001931385364199285 
-0.0004209559790292575 
0.001931385364199285 
0.001931385364199285 
0.01934558605453572 
0.001931385364199285 
0.001931385364199285 
0.1665723707426415 
-0.02535575507512259 
8.295481506394699e-05 
0.00846903488997414 
0.01564868586523658 
0.008568109106835838 
0.001931385364199285 
0.005234627211241892 
0.010713981827171 
-0.0008836645612005595 
0.00413697647490523 
0.001931385364199285 
0.004171525361230545 
0.005018993361128053 
0.001931385364199285 
0.005955951628973645 
0.001931385364199285 
-0.03960117117786751 
-0.03442936360133197 
0.001931385364199285 
0.001931385364199285 
-0.006579115461303189 
0.01186599101396078 
-0.01402257410035041 
0.001931385364199285 
0.005219415179522579 
-0.005441442292403423 
0.007376643560726053 
-0.0003321135083988679 
0.00391760456252496 
0.02262863869759492 
0.003533226422997454 
0.002154556102754689 
0.001931385364199285 
0.001124988242477855 
0.006703246754471397 
0.001931385364199285 
0.001931385364199285 
0.004964616436974809 
0.001931385364199285 
-0.002369269257465765 
-0.003585578484385385 
0.001160403587474467 
0.05289832409889957 
0.001931385364199285 
0.001124988242477855 
-0.003116698489060891 
0.001931385364199285 
-0.02909195470842934 
0.001931385364199285 
0.0317625584359517 
0.001931385364199285 
-0.0007952648679596726 
0.001931385364199285 
-0.0181329629572912 
0.005018993361128053 
-0.001392399119148858 
-0.006781111087718848 
0.001160403587474467 
0.001931385364199285 
0.01558315784122655 
-0.0156576102569019 
0.01980774812080466 
0.001931385364199285 
0.002647280223615434 
0.01727564677449192 
0.00484649571942606 
0.0008932286311649549 
-0.006047205548822774 
0.008478546176217601 
-0.06987460948256256 
-0.01195662769334353 
-0.006312727792903814 
0.01210379422883672 
-0.05831362104820402 
0.01748832384642232 
-0.0707223359923014 
0.005266147034471364 
0.002583625446103686 
-0.01648143574968719 
0.07188511003409076 
0.002583625446103686 
0.01076884584887193 
0.002990704238658287 
-0.1203610003848109 
0.0137235049576303 
0.002583625446103686 
-0.009091296734073218 
0.003678067435442306 
0.01826252082563373 
0.002583625446103686 
-0.001621441826839785 
-0.07626266596442582 
-0.003539619004107122 
-0.03679144316346674 
0.002583625446103686 
0.02246571634474791 
-0.07450027499005724 
0.004934172580222765 
0.002583625446103686 
0.002583625446103686 
0.00543700565197677 
0.002583625446103686 
0.02210282662825914 
0.00775743063099372 
0.01092918858395335 
0.0103282680496561 
0.01608484150308257 
0.01566834560165806 
0.05398347919652493 
-0.007329804866871204 
0.03713229941433884 
0.0009802423477622648 
0.00775087633831106 
-0.09995077762622283 
0.00204317162645477 
-0.05530731959878014 
0.002583625446103686 
0.007486906426507035 
-0.006425345276663093 
-0.005697522887811517 
0.0102355453419724 
0.002527074594572766 
-0.03031390313733512 
-0.01620891770839611 
0.02303271886472667 
0.001756119681219752 
0.003253315455962563 
0.002583625446103686 
-0.02039919462806949 
-0.02685995995904772 
-0.003344428552896766 
0.02658219991860222 
0.002583625446103686 
0.07317856392995478 
0.002583625446103686 
-0.001780041310063172 
-0.06168659817387132 
-0.02062044261290102 
0.002583625446103686 
-0.01782264341406794 
0.00895830030863624 
-0.02071604094790534 
0.02852756947467671 
0.1807639651161279 
-0.03800553473313138 
0.02076055819739213 
0.0132075872054739 
0.01828471101644754 
-0.06410948797426624 
0.002583625446103686 
0.005167250892207372 
0.01311530993359675 
0.002583625446103686 
-0.01347026656483049 
-0.02311168409065878 
0.002583625446103686 
0.002583625446103686 
0.002583625446103686 
-0.006305934616701523 
0.002583625446103686 
0.002583625446103686 
0.002583625446103686 
0.002583625446103686 
0.002583625446103686 
0.005167250892207372 
0.002583625446103686 
0.00775087633831106 
0.002583625446103686 
0.03038688203859492 
0.002583625446103686 
0.002583625446103686 
0.002583625446103686 
-0.00162612761162682 
0.005133371040990918 
0.002583625446103686 
-0.001945556345637002 
0.00775087633831106 
0.002583625446103686 
0.002583625446103686 
0.002583625446103686 
0.01042013687131562 
0.002583625446103686 
-0.01635191821903073 
-0.006958317486395292 
0.00222910729034555 
0.002803426402729104 
0.002583625446103686 
-0.02142385383336965 
0.002583625446103686 
0.002583625446103686 
0.005157526579395878 
0.00676367494880316 
0.00257413821589999 
-0.0923793849415183 
0.002583625446103686 
0.01542920059915793 
0.002583625446103686 
0.002583625446103686 
0.002583625446103686 
0.002583625446103686 
0.002583625446103686 
0.002583625446103686 
0.002583625446103686 
0.002583625446103686 
-0.006060683533992764 
0.002583625446103686 
0.01721521061976198 
0.008435320837105607 
0.005167250892207372 
0.002583625446103686 
0.001149215410429952 
0.002583625446103686 
0.002583625446103686 
0.002583625446103686 
0.002583625446103686 
0.002583625446103686 
0.002583625446103686 
0.002583625446103686 
0.006566839371690095 
0.002583625446103686 
0.002583625446103686 
-0.002019891716110707 
0.002583625446103686 
0.005167250892207372 
0.002583625446103686 
0.0002192323017311183 
-0.004817289629089073 
0.002583625446103686 
0.002583625446103686 
0.002583625446103686 
0.005167250892207372 
0.01006722127722999 
0.002583625446103686 
0.002583625446103686 
0.002583625446103686 
0.002583625446103686 
0.002583625446103686 
0.02856966805356869 
0.002583625446103686 
-0.008003883076575981 
0.00775087633831106 
0.002359949393454598 
0.002583625446103686 
-0.0003083773901802209 
0.002583625446103686 
0.002583625446103686 
0.002583625446103686 
0.002583625446103686 
0.002583625446103686 
0.002583625446103686 
0.002583625446103686 
0.002583625446103686 
0.002583625446103686 
0.002583625446103686 
4.887758566215588e-06 
0.002583625446103686 
0.00775087633831106 
-0.03992124997454508 
0.002583625446103686 
0.002583625446103686 
0.002583625446103686 
0.002583625446103686 
0.002583625446103686 
0.002583625446103686 
0.002583625446103686 
0.006907685700987144 
0.002583625446103686 
0.002583625446103686 
0.0230378434760716 
0.002583625446103686 
0.00174727919237572 
0.002583625446103686 
0.002583625446103686 
0.002583625446103686 
-0.003378974889643469 
0.002583625446103686 
0.002583625446103686 
-0.002778829404568416 
0.002583625446103686 
-0.003700380192794107 
0.02421120625186022 
0.002583625446103686 
0.002583625446103686 
0.005480145393588231 
0.02114748409324022 
0.002583625446103686 
0.002018928013294855 
0.03251468646210332 
0.002583625446103686 
0.002583625446103686 
0.002583625446103686 
0.002583625446103686 
0.003100739017332417 
-0.001806297144064352 
0.002583625446103686 
0.002583625446103686 
0.0001704558161143269 
0.04738474360469168 
0.002583625446103686 
0.002583625446103686 
-0.05469717422128394 
0.002583625446103686 
0.03820875260605345 
0.002583625446103686 
0.002583625446103686 
-0.01085140403680941 
-0.01251280059046233 
0.002583625446103686 
0.01155062323596364 
0.0130552571434635 
0.002583625446103686 
0.002583625446103686 
0.002583625446103686 
0.002583625446103686 
-0.01582642707176791 
0.002583625446103686 
0.009509703183900743 
0.002099404901424121 
0.002583625446103686 
0.006886730172734301 
0.002583625446103686 
0.03459827425043713 
0.07636407667134085 
0.02708697088542881 
0.002583625446103686 
0.002583625446103686 
0.002583625446103686 
0.002583625446103686 
0.04020078336523527 
0.01120494414467094 
-0.01879157293966188 
0.01426895311009827 
-0.05365287560480991 
0.05004688281364615 
-0.0005276791531781031 
0.003486352214265655 
0.03311067247197472 
0.07511037958723808 
-0.01183047272606031 
0.009483947621449568 
-0.04473496304107323 
-0.01057333221589559 
0.02513221956506085 
0.04436450176421942 
0.004380900863429825 
-0.2668782267294093 
0.03883292144588536 
-0.02477810557959076 
0.00958253766117023 
0.02170411419481994 
-0.00225460146599562 
0.00958253766117023 
0.00958253766117023 
-0.171546117608477 
0.0167986047464219 
0.00958253766117023 
0.00958253766117023 
0.009750367578070279 
0.00958253766117023 
0.02805510715974949 
0.03073021835451293 
-0.001965228816464458 
0.00958253766117023 
0.00958253766117023 
0.003155891916238804 
0.00958253766117023 
0.05517148021600726 
-0.03859352279030372 
0.09534561421531768 
0.05391241040911613 
0.01186665603982329 
0.00958253766117023 
0.00958253766117023 
0.038347104158637 
0.00958253766117023 
-0.03547932144365144 
0.00958253766117023 
0.00958253766117023 
-0.0031793656823711 
0.1268007853830798 
0.00958253766117023 
0.05680149650379288 
0.06874770511699593 
0.04532056575855803 
0.0468596631024949 
0.001838977278286758 
-0.105892661029211 
-0.02751753759376917 
0.007348387018877821 
-0.08287415007902359 
-0.002446488569523403 
-0.001609793059106311 
0.04028906277160293 
0.009491465905024463 
0.01335773403230976 
0.08541274721920711 
0.004642821028701283 
0.009491465905024463 
0.06274827889235936 
-0.06921559396154203 
-0.001557357561820726 
-0.0710054514203781 
0.02330716242113192 
-0.004654060133245017 
0.007552428737788662 
-0.003188234411527001 
0.006160098537938333 
-0.01807890136684431 
0.009491465905024463 
0.009491465905024463 
-0.04512800976608666 
0.0069272347036878 
0.009491465905024463 
0.07122692660409827 
-0.01412150418347558 
0.03514235150727593 
0.009491465905024463 
-0.02730833306849507 
0.02282220541664869 
-0.02645282210335503 
-0.04918502628616054 
0.09686918127933018 
-0.03335316980228233 
0.02160143469315772 
0.009491465905024463 
0.0561417525522854 
-0.03094795802570518 
0.02107919699489186 
0.004025831354546635 
0.009491465905024463 
-0.01473120809303605 
0.009491465905024463 
0.02659629318270335 
0.009491465905024463 
0.009491465905024463 
0.01278551276058423 
0.009491465905024463 
0.03905999489704571 
0.01640736720985131 
0.0114098887155769 
0.009491465905024463 
0.009491465905024463 
0.004142951273457957 
0.009491465905024463 
0.009491465905024463 
0.009491465905024463 
0.009491465905024463 
-0.1166756916554961 
0.02053137141286115 
0.009491465905024463 
0.009491465905024463 
0.009491465905024463 
0.009491465905024463 
-0.01502395339294078 
-0.01185028329367982 
0.01295243708882526 
0.009491465905024463 
0.009491465905024463 
0.009491465905024463 
-0.006514609714419342 
-0.01190034860148454 
0.009491465905024463 
-0.01195971318079801 
0.009491465905024463 
0.007298055681879462 
0.009491465905024463 
0.009491465905024463 
0.01568751275774858 
0.0003250193581656197 
0.001475596785591809 
0.009491465905024463 
0.009491465905024463 
0.005867206791968373 
0.01219440954460338 
0.009491465905024463 
-0.009912793031419913 
0.001692140512486075 
0.009491465905024463 
0.09843545110461187 
0.01568751275774858 
0.06611383823527565 
0.009491465905024463 
0.009491465905024463 
-0.01119588235544886 
0.009491465905024463 
0.009491465905024463 
0.009491465905024463 
0.009491465905024463 
0.009491465905024463 
0.01411928589581596 
0.01507005315771624 
0.01461391225391847 
0.01411928589581596 
-0.02355387936484048 
0.01765803244093062 
0.04983106908016556 
-0.04496674527913554 
-0.008032701183218346 
0.01308277644857688 
-0.06185572198039781 
0.01411928589581596 
0.02413190527662372 
-0.007878323894819291 
-0.00809580766817853 
0.01411928589581596 
-0.03669169168467455 
0.1258443572194275 
0.0307831419050285 
0.01411928589581596 
0.01411928589581596 
0.01411928589581596 
0.004370699845998772 
0.01411928589581596 
-0.01906992778889491 
0.01411928589581596 
0.01411928589581596 
0.001316076591681736 
0.01411928589581596 
0.02127661171308547 
0.01411928589581596 
-0.02802521016749868 
0.01411928589581596 
0.01411928589581596 
0.009636224790236477 
0.006090020438563245 
0.01411928589581596 
0.02206775691113 
0.01411928589581596 
-0.00580827480927801 
0.01530732862371412 
0.01411928589581596 
0.01411928589581596 
0.02635350441495864 
0.01411928589581596 
0.01411928589581596 
0.05597735747143331 
-0.002717174673875199 
0.06657311122302328 
0.01411928589581596 
0.01411928589581596 
-0.03615990623023341 
0.003225277143319467 
0.01411928589581596 
0.01411928589581596 
0.01411928589581596 
0.0188548276769726 
-0.003893249470288359 
0.06011739862698698 
0.09740411244214763 
0.01258843266201978 
0.01398732424279927 
0.01411928589581596 
-0.007769764821925042 
0.01411928589581596 
0.08170480407655996 
0.01411928589581596 
0.01411928589581596 
0.01367575946649514 
0.01641905993378705 
-0.01970757427866342 
0.01411928589581596 
0.01080803199055416 
-0.08618575825765197 
0.02558354165840954 
0.004192615523871836 
-0.02867283301463236 
0.007045859681798244 
0.005794171766465944 
0.009541511712106633 
0.009919117321546969 
0.007045859681798244 
0.007045859681798244 
0.007045859681798244 
-0.02514989979117785 
0.007045859681798244 
0.002794548738507393 
0.008235582648172758 
-0.03179506298123594 
0.007045859681798244 
0.007045859681798244 
0.009271835280216157 
0.00595748946364366 
0.007045859681798244 
0.007045859681798244 
-0.02529155966333241 
0.04993761438916164 
0.007045859681798244 
0.007045859681798244 
0.0239252622355355 
-0.01945431837184635 
-0.0275696612410248 
0.007045859681798244 
0.007045859681798244 
-0.007217886721711584 
0.0222858766407796 
0.007045859681798244 
-0.0007376096398731894 
0.007045859681798244 
0.03672678377648497 
0.01075957204816951 
0.007045859681798244 
0.0175727138672438 
-0.02602440916453714 
0.007045859681798244 
-0.02472874313726204 
0.02213406118222077 
0.007045859681798244 
0.007045859681798244 
0.007045859681798244 
0.01571405067584855 
0.007045859681798244 
0.02546377666216987 
0.007045859681798244 
0.007045859681798244 
0.007045859681798244 
-0.01130906870270576 
0.007045859681798244 
0.007045859681798244 
0.0247247721377803 
0.007045859681798244 
0.007045859681798244 
0.007045859681798244 
0.007045859681798244 
0.007045859681798244 
0.004192615523871836 
0.03251903909699529 
0.007045859681798244 
0.007045859681798244 
0.007045859681798244 
0.007045859681798244 
0.007045859681798244 
0.007045859681798244 
0.007045859681798244 
0.01240417852278399 
0.007045859681798244 
0.007045859681798244 
-0.002954384635329232 
-0.0131177249909191 
0.007045859681798244 
0.03253419794585174 
0.007045859681798244 
0.02384158806697859 
-0.008867067230875967 
0.0214824269378187 
0.002390139795858049 
-0.04633892668199383 
-0.02620419219625701 
0.04974056617689663 
0.09667450389322757 
-0.00519159701710131 
0.01274564156530422 
0.04943775832166322 
0.002390139795858049 
-0.01584249110884019 
0.03930396782384966 
0.01335514232588436 
0.009942510473907647 
-0.02250845900870046 
0.02006662190836395 
0.04912575874872058 
0.002390139795858049 
0.004223651020651046 
0.03497859956753788 
0.01092200899720465 
0.002390139795858049 
-0.007283373794561301 
-0.01647928171635754 
0.02270551480775699 
0.03856948037953348 
0.006071034994730506 
-0.07648046417719123 
0.02882177104836723 
-0.005871082262977903 
0.003534424874899874 
0.01335514232588436 
0.002390139795858049 
0.002390139795858049 
0.002390139795858049 
0.1233003290643928 
0.0389928852235438 
0.002390139795858049 
0.002390139795858049 
0.02713535497562992 
-0.01229053899304676 
-0.005249781560543585 
0.002390139795858049 
0.002390139795858049 
0.002091437436256758 
0.01106009899953712 
0.002390139795858049 
0.002390139795858049 
0.02066551362123897 
0.005124385455765087 
0.01805177338718993 
0.02634354056071031 
-0.009610912339822333 
-0.002245464870176461 
0.002390139795858049 
0.01149231524739766 
0.01735819084330919 
0.002390139795858049 
0.01335514232588436 
0.0007962944328689281 
0.05541891249327304 
-0.1042799840933204 
-0.01397053545037548 
0.002390139795858049 
0.002390139795858049 
0.002390139795858049 
0.002390139795858049 
0.005746086882286252 
-0.04671881069694793 
-0.01601170714128338 
0.0162104037476186 
0.002390139795858049 
0.002390139795858049 
0.002390139795858049 
0.002390139795858049 
-0.01463903542770923 
0.01744809122136407 
0.0001080693313592932 
-3.666147913837559e-06 
-0.002654173429040418 
-0.0005997502516040959 
7.730717896181451e-05 
0.05991829391130128 
0.002390139795858049 
0.01066719759667184 
0.002390139795858049 
-2.611017333565511e-06 
-0.007501192554489277 
0.002390139795858049 
-0.02144342121519878 
0.06572336024250515 
0.002390139795858049 
0.0006413773071885042 
-0.004803393585025175 
-0.01931089046809359 
-0.03450533305022038 
-0.1592652499789959 
-0.002927851448897901 
-0.08148674799397747 
0.01365452635568052 
0.02819639204998472 
0.01175160599675799 
-0.002961620329259679 
-0.002961620329259679 
-0.00909428644591683 
-0.0004523624901231588 
0.01369505994935395 
0.002293148414474037 
-0.002961620329259679 
-0.04546179290264785 
0.03923757709551838 
-0.01904673624880674 
-0.002961620329259679 
-0.004377468525065372 
-0.01899092276916473 
0.0255907886312598 
-0.006054981542291711 
-0.002961620329259679 
-0.02148956978619812 
0.05326600537187125 
0.04113422519635591 
-0.007988388602225416 
-0.03042107615931892 
0.0005748427042458007 
-0.03947168575159329 
0.01308169842834152 
0.0006421240532532795 
0.003347628393580365 
-0.001223025792866825 
0.04962974954125777 
-0.002961620329259679 
-0.002961620329259679 
-0.007689406575367742 
0.1492671114242827 
-0.004029871255185899 
-0.04904240921666109 
0.03339507804358522 
-0.002961620329259679 
-0.005749280530908427 
0.03748911382560835 
-0.002961620329259679 
-0.04814102896544753 
-0.0005756195994331909 
-0.04386269107375795 
-0.002961620329259679 
-0.05988583727666447 
0.007125717706786972 
0.01771148836596636 
-0.002961620329259679 
-0.01163755276252457 
-0.002961620329259679 
-0.009662618567724161 
0.0189014574931694 
-0.06365666834729822 
-0.01708228833588197 
0.00280958119161776 
-0.002961620329259679 
-0.002961620329259679 
-0.0179598683962586 
-0.002961620329259679 
-0.01480810164629839 
-0.04769494104805578 
0.004826773129460331 
0.02985338878973124 
0.002891908235816722 
-0.002961620329259679 
0.05786991326878093 
-0.007392094962644031 
0.063650853198308 
-0.002961620329259679 
-0.002961620329259679 
0.01340369138431836 
-0.02718368348573048 
0.003181536966670566 
0.01133375978641582 
-0.002961620329259679 
-0.002961620329259679 
-0.002961620329259679 
0.0319955678250553 
-0.002961620329259679 
-0.002961620329259679 
0.02575288601342712 
-0.002961620329259679 
-0.008884860987779042 
-0.009858770002706654 
-0.002961620329259679 
0.0006868594245543862 
0.005515096185721422 
-0.002961620329259679 
-0.002961620329259679 
-0.002961620329259679 
-0.002075670791565065 
-0.01211112419747232 
-0.002961620329259679 
0.03937515425611194 
-0.002961620329259679 
0.007352243128083016 
-0.01248449456366501 
-0.002961620329259679 
-0.002961620329259679 
0.01229674647918115 
-0.002961620329259679 
0.002704265159621435 
0.01362044734622501 
-0.002961620329259679 
-0.002961620329259679 
0.005166910908976479 
-0.01556477493516296 
-0.002961620329259679 
0.01193594860459929 
-0.04021325265469401 
-0.002961620329259679 
-0.002786376532399371 
0.0750556240177872 
0.07704849143414509 
-0.002961620329259679 
-0.05173933821260696 
-0.002961620329259679 
-0.002961620329259679 
-0.002961620329259679 
-0.002961620329259679 
-0.002961620329259679 
-0.002961620329259679 
-0.002961620329259679 
-0.002961620329259679 
0.03231612735856427 
-0.002961620329259679 
0.03602927851086051 
0.002333827844059369 
0.0041230794874911 
-0.02845808162563954 
0.01065089087108417 
-0.002961620329259679 
-0.002961620329259679 
-0.002961620329259679 
-0.002961620329259679 
-0.008712137312312119 
0.01390731841744736 
-0.002961620329259679 
-0.002961620329259679 
-0.002961620329259679 
0.005820100645190444 
-0.002961620329259679 
0.063650853198308 
-0.002961620329259679 
0.01319508953471542 
-0.002961620329259679 
-0.004224637457419389 
-0.002961620329259679 
-0.002961620329259679 
-0.005615567174637584 
-0.004359280931087266 
0.005976827699492719 
-0.002705219562773531 
-0.002961620329259679 
-0.002961620329259679 
-0.07833389863486916 
-0.002961620329259679 
0.03030250741055555 
0.007797002374648532 
-0.002961620329259679 
-0.002961620329259679 
-0.002961620329259679 
-0.002961620329259679 
-0.002961620329259679 
-0.002961620329259679 
-0.002961620329259679 
-0.04453567347476069 
-0.002961620329259679 
-0.01108257828023029 
0.07647917963098322 
-0.002961620329259679 
0.0411214279625364 
-0.003870269164498228 
-0.002961620329259679 
-0.002961620329259679 
-0.002961620329259679 
-0.002961620329259679 
-0.002961620329259679 
0.03411594725121755 
-0.0583728586875034 
-0.002961620329259679 
0.03714123853350147 
-0.002961620329259679 
0.04178127220281337 
-0.002961620329259679 
-0.002961620329259679 
0.06787026816012211 
-0.1451434888266198 
-0.002961620329259679 
0.007992894716790933 
-0.002786376532399371 
0.001578924378276552 
-0.01869962468785978 
-0.002961620329259679 
0.002446912583290312 
-0.002961620329259679 
-0.004606080292977913 
-0.002961620329259679 
0.01882000805425652 
0.04519752418641042 
-0.002961620329259679 
-0.002961620329259679 
-0.002961620329259679 
-0.01619011899461005 
-0.002961620329259679 
-0.002961620329259679 
0.01823746508602295 
-0.001829499231785258 
-0.002961620329259679 
-0.002961620329259679 
-0.002961620329259679 
0.01461962556408651 
-0.002961620329259679 
-0.002961620329259679 
-0.002961620329259679 
-0.01548854255503513 
-0.001361720345493286 
0.003347628393580365 
-0.005432239527206447 
-0.002961620329259679 
-0.002961620329259679 
-0.002961620329259679 
-0.002961620329259679 
0.002644255199909547 
-0.002961620329259679 
-0.006581581089300416 
0.01074166070358976 
-0.002961620329259679 
-0.00300585720183128 
-0.001223025792866825 
-0.005923240658519359 
-0.002961620329259679 
-0.002961620329259679 
-0.1506377680341784 
-0.002961620329259679 
-0.002961620329259679 
-0.01762487828111911 
-0.002961620329259679 
-0.002961620329259679 
-0.00788787172614085 
0.0007231200480639105 
-0.002961620329259679 
-0.01000384565075905 
-0.004217380917783833 
-0.002961620329259679 
-0.002144317138729117 
0.007515190186867107 
-0.01387460106598398 
0.01376172424261565 
0.03540493443661415 
0.02773302768189909 
0.01069068557371429 
-0.002227928402734585 
0.07092903452072777 
0.02384209727447025 
0.02071688028935459 
0.009952919268021009 
0.07816854250068475 
-0.07661034056548052 
0.02999458255828732 
0.004589911970937591 
-0.0211354266018236 
0.02158818648399982 
-0.0001312764181756596 
-0.01346574823062087 
-0.03610572128933467 
-0.02185738309236009 
-0.03074715180512677 
0.02017707584731471 
0.03143314689399091 
-0.00352851529288016 
-0.06556466547419655 
-0.03813349506720412 
-0.002144317138729117 
-0.006830032165650281 
0.04868399986986063 
-0.002144317138729117 
-0.02402894585523979 
-0.03423265829020519 
-0.0142292417592792 
-0.006119406490257641 
0.003387955909601833 
-0.02732551913131351 
-0.02527403373610726 
-0.002144317138729117 
-0.002144317138729117 
-0.002144317138729117 
0.07088723632165267 
-0.008214745030913873 
0.03316419177718451 
-0.004095418271170308 
-0.01969101120009257 
0.0005358705537932889 
-0.002144317138729117 
-0.002144317138729117 
0.05310902095132795 
0.001072776285994909 
-0.0008370812354746127 
0.03814312205294875 
-0.02236546312910578 
-0.04658892801267766 
0.03164227196530078 
0.03143314689399091 
-0.002144317138729117 
0.003557342271679588 
-0.002144317138729117 
0.008069481362123361 
-0.01721304156396817 
0.01339831676643494 
0.008891384854563181 
-0.04658892801267766 
-0.002144317138729117 
0.009317743967251086 
0.03228105483232929 
-0.04658892801267766 
-0.004690777342656918 
-0.002144317138729117 
-0.002144317138729117 
-0.002144317138729117 
-0.004286260188918379 
0.005290471788258931 
-0.01001876872378491 
-0.02655222303064827 
0.02070874389398902 
-0.002144317138729117 
-0.002144317138729117 
-0.002144317138729117 
-0.003843054603061335 
-0.0009865647283790449 
-0.002144317138729117 
0.009871864698253486 
-0.002510429367283137 
-0.002144317138729117 
-0.002144317138729117 
-0.002144317138729117 
0.01268229594917978 
-0.008201766173596785 
0.01941498459191099 
-0.01603003413944246 
-0.002144317138729117 
-0.002144317138729117 
0.03855042833982165 
-0.002144317138729117 
-0.01448877476649093 
-0.002144317138729117 
0.02718013892720436 
-0.0003606410952775584 
-0.002144317138729117 
-0.0114996062188993 
-0.01310263038352395 
-0.002144317138729117 
-0.001247509206934422 
0.00175612239088496 
-0.002144317138729117 
-0.002144317138729117 
-0.005475393498517162 
0.01234534179141377 
0.02812730207307233 
0.01444811528138897 
-0.002144317138729117 
0.007574579739412845 
-0.002144317138729117 
-0.002144317138729117 
-0.006231210928489166 
-0.003680093484835691 
0.003805371744404224 
-0.0006855115534906587 
-0.002144317138729117 
0.004066402763905248 
-0.002144317138729117 
0.01689814537220526 
-0.002144317138729117 
0.01665847902659741 
-0.002144317138729117 
-0.002144317138729117 
0.04302289330818039 
0.2142474624817043 
-0.002144317138729117 
-0.002144317138729117 
-0.005470708332065395 
-0.001659338017536783 
-0.002144317138729117 
0.01021019191785655 
0.009142154922148515 
0.02939431207342531 
-0.002144317138729117 
-0.002144317138729117 
-0.002144317138729117 
-0.002144317138729117 
-0.002144317138729117 
-0.004254474886098559 
-0.04861203275506935 
-0.006424102716420698 
0.003699978703560247 
0.008245583291467439 
-0.002144317138729117 
-0.002144317138729117 
0.02488870212383267 
0.01150663456301152 
0.02161045316730457 
-0.01289131585287507 
-0.002144317138729117 
0.02445995356405418 
-0.002144317138729117 
0.002143329599134308 
-0.002144317138729117 
-0.002144317138729117 
0.1015957646611966 
0.01133840809733095 
0.0007628781483333283 
-0.003261358831735275 
-0.002144317138729117 
0.01287149627042267 
-0.002144317138729117 
-0.00938782937644826 
-0.002144317138729117 
0.02659320561291681 
0.05119029482827394 
0.1028940401309075 
-0.01820274346680386 
-0.01055570003186265 
0.05626762239217409 
0.07992933089094111 
0.1027602117588226 
0.009932963812291215 
0.03064880777194877 
0.05755909959772112 
0.001529461111577594 
0.05388807876536456 
0.01329066449471342 
-0.001772842964812185 
-0.001674551661345481 
0.01395603226475417 
0.003728684527656692 
-0.02172671312667883 
-0.001772842964812185 
-0.03132425685113122 
0.03749323599167241 
0.05966631970429372 
-0.04808507498647253 
0.04326719517981727 
0.00514600983589715 
0.06126107631336822 
0.02243697694753645 
0.05966631970429372 
0.05233762798969881 
-0.02923641405028806 
0.05966631970429372 
0.05146163165572126 
0.06915020360329874 
0.05966631970429372 
-0.01029323144084013 
0.008851545098612718 
0.008851545098612718 
0.05306391973851969 
-0.00984405722393052 
0.01840333045458635 
-0.008758392413054362 
-0.008639764745824469 
0.008851545098612718 
0.006496136645997644 
0.008851545098612718 
0.007179467348599794 
0.03116966052678085 
0.008851545098612718 
-0.1310109946540532 
0.008851545098612718 
0.02390538927854559 
0.037097039249116 
-0.02188762639106881 
0.008851545098612718 
0.008851545098612718 
0.02489862003215596 
0.009333483567126464 
-0.02543986179073554 
0.008851545098612718 
0.01770309019722544 
0.008851545098612718 
0.008851545098612718 
0.008851545098612718 
-0.0257847978926582 
0.008851545098612718 
0.008851545098612718 
0.008851545098612718 
0.008851545098612718 
0.008851545098612718 
0.004179334024191394 
0.008851545098612718 
0.008851545098612718 
0.008851545098612718 
0.008851545098612718 
0.007365794195301964 
0.004231747907155336 
0.008851545098612718 
0.0006637009480317101 
0.008851545098612718 
0.008851545098612718 
0.008851545098612718 
-0.001808196692922014 
0.01770309019722544 
0.008851545098612718 
0.008851545098612718 
-0.02987418632144252 
0.008851545098612718 
0.008851545098612718 
-0.09973880540317422 
0.008851545098612718 
0.008851545098612718 
0.05895694459049081 
0.008851545098612718 
0.001300476516664858 
0.008851545098612718 
0.01770309019722544 
0.008851545098612718 
0.008851545098612718 
0.008851545098612718 
0.008851545098612718 
-0.04482140432180726 
0.008851545098612718 
0.008851545098612718 
0.008851545098612718 
0.008851545098612718 
0.008851545098612718 
0.008851545098612718 
0.01770309019722544 
0.02079687701529365 
0.0440661191003699 
0.0256295474452424 
0.008851545098612718 
0.004004163335683948 
0.008851545098612718 
0.008851545098612718 
0.008851545098612718 
0.04137304685601761 
0.03961702329139613 
0.06162572373963149 
0.04580282193450158 
-0.08551716743086156 
0.05264730306889157 
0.03302832925985801 
0.06265207875977881 
0.03388924575081988 
0.04171909555356291 
0.04580282193450158 
0.06491481851703827 
0.01506827115344673 
0.04580282193450158 
0.04580282193450158 
-0.002289486699090298 
-0.01893145563787495 
0.04580282193450158 
0.02434000423294293 
0.04580282193450158 
0.02467085548848948 
0.04297256048379338 
0.03795139275720896 
0.04580282193450158 
0.04580282193450158 
0.04580282193450158 
0.04917706232125989 
0.02846620170848553 
0.03657416467743971 
-0.01899943045833878 
-0.01168033550401716 
0.0001103104337466174 
0.06070884449372117 
-0.00247123587229367 
0.04291453545084511 
0.04917706232125989 
-0.09101912481556859 
0.03160973559500528 
0.08842073180289735 
0.04108568848736278 
-0.0262402466984448 
0.04108568848736278 
0.04108568848736278 
-0.06470741473652061 
0.04108568848736278 
0.2732681136989777 
0.02815013352510011 
0.07649712446937999 
-0.0103177292194295 
0.01982488803179553 
0.0259596563878944 
0.02544146250093673 
0.02544146250093673 
0.02179607708194708 
0.02323888088663528 
0.07075733945672354 
0.006224129643808069 
0.02544146250093673 
0.02544146250093673 
0.04321089225199301 
0.02544146250093673 
-0.02250722972996974 
-0.03807415373239648 
0.01743651147024977 
0.007392244116358906 
0.01838209963528335 
0.02544146250093673 
0.04886974396063368 
0.0395788106095469 
-0.06563718806388887 
0.02900000932004602 
0.0169544297369465 
0.03677035912796407 
0.03282054226417104 
-0.05255037782006953 
0.001080108401662269 
0.03290822108482339 
0.02628315330516114 
0.04465419554956739 
0.0216876766557302 
0.01751144928224596 
0.004055743148262641 
0.02173073506197761 
-0.03330983013366405 
0.02173073506197761 
0.02173073506197761 
0.02173073506197761 
0.01697826155308201 
-0.007214600855344407 
0.01583557841362475 
0.0229491851935948 
0.0006246934531276885 
0.04490764294846671 
0.04024074468287683 
0.01965704873968419 
-0.06015295323356898 
0.08008701488914051 
0.06387005486241644 
0.003349881925579543 
0.01965704873968419 
-4.332419638911598e-05 
0.02484418609101235 
-0.07318057839761588 
0.04813474096821387 
0.01965704873968419 
0.0001268771715264557 
0.006922932879392336 
0.003626400607699142 
0.0001268771715264557 
0.0001268771715264557 
-0.004541696646111913 
-0.02103340887602492 
0.02378017001048868 
0.1317323731093411 
-0.02555979734255878 
-0.1275935008940903 
0.0003787238230917974 
-0.01586147541666612 
0.02486289085633551 
-7.218075975678161e-05 
0.1309507581208454 
0.01841692669663354 
0.001047801161484847 
0.0001268771715264557 
-0.01063494658318979 
-0.006765344965590568 
-0.01742778049619478 
0.03190007058251669 
0.1579300861321138 
0.01015769987793688 
0.03180467850217789 
0.01263968987769002 
-0.01316842532266094 
0.0001268771715264557 
0.0001268771715264557 
0.07195793311253817 
-0.0009487955727336272 
9.250110698231896e-05 
0.02968270967962937 
0.0001268771715264557 
0.02535075458143796 
-0.007284663296276641 
0.0001268771715264557 
0.02566294383015398 
0.00064266542111288 
-0.02164366366035341 
-0.01586147541666612 
-0.01805013009805119 
-0.02269638803467632 
0.0001268771715264557 
-0.02220563090038548 
0.0001268771715264557 
0.01806262893003539 
0.0001268771715264557 
0.0001268771715264557 
-0.01734441406747018 
0.009232670801450422 
0.0001268771715264557 
0.0199584478791961 
-0.01718025398093571 
-0.00250146624261587 
0.0001268771715264557 
0.0001268771715264557 
-0.008056682656206043 
0.0001268771715264557 
0.009574480086591088 
0.0001268771715264557 
0.09674052904128438 
0.005671477045472392 
0.0008635805187107203 
-0.01246768124674363 
-0.01901671112562946 
0.0001268771715264557 
-0.0127613987121768 
0.01241536791758164 
0.0001268771715264557 
0.06862574236890889 
0.006153761850393612 
-0.03078164403682236 
0.0001268771715264557 
-0.01268171378381492 
-0.000833943822166216 
0.02276747087865493 
0.01263968987769002 
-0.003352216880433747 
0.0001268771715264557 
0.0001268771715264557 
0.01082432808942365 
-0.001041777017897173 
0.01555108017555783 
0.002401285453309888 
0.001047801161484847 
0.0001268771715264557 
0.1182062260390906 
0.0001268771715264557 
0.0001268771715264557 
0.04329201860340796 
0.001473079934311378 
0.003014493565558096 
0.0001268771715264557 
0.04886826072347164 
-0.05218873363783381 
-0.03223035270881883 
0.002253229006830624 
0.001261322472797481 
-0.002455508421257737 
0.009718690289450074 
-0.01111745632105507 
0.02487304267510396 
0.0001904741468269456 
-0.03200580207179816 
0.002013996615569765 
-0.02995742004200528 
0.007816478649243983 
0.0001268771715264557 
-0.01204835812885277 
0.0001268771715264557 
-8.876828277830612e-05 
0.1034258824065784 
-0.0171130672909689 
0.0001268771715264557 
0.0001268771715264557 
0.01422100703125746 
0.01970463898340383 
-0.006143159260240623 
0.01003403646392366 
-0.01586147541666612 
0.01162922012053674 
0.003376190928631835 
-0.03574093564789205 
-0.01748792109305274 
-0.005526362329120503 
0.02894321098117925 
-0.005526362329120503 
-0.01531581265897741 
-0.01015205928012611 
0.02358306578932683 
-0.02670346127698452 
-0.001248281071608212 
-0.005526362329120503 
0.09938277811096927 
9.549938871453937e-05 
-0.005526362329120503 
-0.007678150719707164 
-0.007652501459851759 
-0.01130501527119091 
-0.005526362329120503 
0.02780474176949852 
0.01167492699151424 
-0.003053247634416575 
0.03536019378505482 
0.01417771413094863 
0.01137941829095414 
-0.01861796164921536 
0.03332179675213959 
-0.0728154504410479 
-0.02976076764992294 
0.09106366735352639 
0.01339167421783989 
-0.01115517259655203 
0.0005692174538591036 
-0.02238365347080078 
0.00821172465464801 
0.08004557938577683 
-0.02201251260947944 
-0.05377207444275297 
-0.01231259820314137 
-0.007848635225639911 
0.01401916323644377 
-0.007119009569035557 
0.02412711301673992 
-0.002621631145733722 
-0.009727517964920905 
-0.005526362329120503 
-0.004065980426581991 
0.008280829662618863 
0.06504506041023149 
0.006432284149168641 
-0.005526362329120503 
-0.005526362329120503 
-0.005526362329120503 
-0.005526362329120503 
-0.004855201570691914 
0.05167630685181701 
-0.005526362329120503 
-0.005526362329120503 
0.03869349915001055 
0.03014590990146196 
-0.005526362329120503 
-0.005526362329120503 
0.008270619674862839 
-0.07950400759584715 
-0.005526362329120503 
-0.02291910688536326 
-0.005526362329120503 
-0.04232054894520239 
-0.005526362329120503 
-0.005526362329120503 
0.06599721614874948 
-0.009395687851356074 
-0.005526362329120503 
-0.0004912607203941648 
-0.02855933650738771 
0.02742097057035579 
-0.005526362329120503 
-0.005526362329120503 
0.001188555078642023 
-0.00300936845775997 
-0.005526362329120503 
0.02773244034707575 
-0.004921599476700657 
-0.006827280975451577 
0.009637986348177453 
-0.005526362329120503 
0.01676636886512064 
-0.005526362329120503 
-0.005526362329120503 
-0.005526362329120503 
-0.005526362329120503 
0.006295121515536751 
-0.005526362329120503 
-0.004242576316637331 
-0.04139702749591466 
-0.001693357623873588 
-0.005526362329120503 
-0.01666036222175766 
-0.005526362329120503 
-0.02261359836124412 
-0.05772984383097399 
0.002713460773962881 
-0.005219965559897299 
0.07145451556098331 
-0.005526362329120503 
-0.007877478527319792 
-0.01558934184487467 
-0.003376703685570234 
-0.005526362329120503 
0.00322975755449272 
-0.005526362329120503 
-0.005526362329120503 
-0.005526362329120503 
-0.03793797187344364 
-0.007894811644276828 
-0.004141061503136795 
-0.005526362329120503 
-0.009135234880188331 
0.0147776161431783 
0.008186067408537357 
-0.03792140976523416 
0.01533867537593099 
0.01038167175516747 
-0.04151408714281081 
-0.005526362329120503 
0.007126748575011436 
-0.005526362329120503 
0.04296874807187335 
-0.005526362329120503 
-0.005526362329120503 
-0.005526362329120503 
-0.005526362329120503 
-0.005526362329120503 
-0.01663195775570371 
-0.0120039872573613 
0.03832415591920339 
-0.005526362329120503 
-0.01556115535715431 
0.05679946594911746 
-0.007848635225639911 
-0.008834904097143789 
0.07110975280677855 
-0.005526362329120503 
-0.005526362329120503 
-0.008100712430467448 
-0.02107614751215887 
-0.01231259820314137 
-0.005526362329120503 
-0.005526362329120503 
-0.002236173147681654 
0.01447872426926792 
-0.005526362329120503 
-0.005526362329120503 
0.05227506617331244 
-0.01861796164921536 
-0.008166849279667427 
-0.005526362329120503 
0.03227144768011439 
-0.005526362329120503 
-0.005526362329120503 
-0.02335407512951732 
-0.005526362329120503 
-0.005526362329120503 
-0.003474474258880594 
0.0003378402931917057 
0.05642791279426318 
-0.02259275001591432 
-0.005526362329120503 
-0.0185351244950742 
0.0215402018567167 
-0.01680710401647765 
0.003812459979710551 
-0.004119728772365493 
-0.005526362329120503 
-0.04917717503768154 
0.002044588468543127 
0.0009517157256568578 
-0.04823181290702096 
-0.04692796768498314 
0.0009517157256568578 
-0.004654028700164208 
-0.008285547577241243 
0.02129799617140694 
0.05884112872566574 
0.0009517157256568578 
0.0009517157256568578 
-0.007865204367642395 
-0.02221852035812698 
0.0301999435433155 
0.0009517157256568578 
-0.007932763929286902 
0.0231545574779213 
0.0009517157256568578 
0.0009517157256568578 
-0.002878400469332985 
-0.01074815634728572 
0.0009517157256568578 
0.02836100384641583 
-0.04145065861497057 
0.003039954853414524 
0.001801285939976841 
-0.01367527571976076 
-0.0001110567784046783 
0.0009517157256568578 
0.01620954580026041 
-0.05983898086990212 
-0.05958849767321852 
0.02919831380319331 
-0.0004742316845490409 
0.01735343681050128 
-0.02028537138902894 
0.008706430191801364 
-0.01134353091113655 
-0.02116696222214881 
0.0009517157256568578 
0.04688564778665173 
0.02441850069314846 
0.002079337905718326 
0.0009517157256568578 
0.005338745912130521 
0.02135070555847829 
-0.01862588618099162 
-0.0009100697339804913 
0.03985525048647672 
-0.05602939436875626 
-0.06674147817668025 
-0.01577090162197783 
-0.01471224252048426 
-0.0009987579056276266 
0.0009517157256568578 
0.01636141713324986 
0.0009517157256568578 
0.00931680421486461 
-0.007448172842908343 
0.02342843787575037 
-0.003055816291019127 
0.04393139713122267 
-0.04619863197635595 
0.0009517157256568578 
0.007614611396625128 
0.0009517157256568578 
-0.02032760761841167 
0.01014354230305349 
0.008470112814271199 
-0.020058735735409 
-0.009255996118016667 
0.0009517157256568578 
-0.01161390759705561 
-0.04826485763220392 
0.008053491114465411 
0.002613782390289165 
0.0009517157256568578 
0.0009517157256568578 
0.0009517157256568578 
-0.007979318602145593 
0.03943189211449316 
0.1005284056776957 
0.009819398334824007 
0.003271996013138905 
0.0660813008830539 
-0.003380286162713881 
0.001164125059331844 
0.0009517157256568578 
-0.00081753572095919 
0.0005142324498930267 
-0.01528970543961719 
0.009270153428876311 
0.004109936443532382 
-0.003816934905824195 
-0.005636412339353802 
0.003806862902627431 
0.003050776603916346 
-0.009924753740888012 
-0.009632976956345589 
-0.002698879456816097 
0.006934585135750296 
0.009877172030114021 
0.0289971441753834 
-0.002012417297835642 
0.0009517157256568578 
-0.007384081579843011 
0.01249250038659087 
-0.01404145586463088 
0.0009517157256568578 
0.003326533296199519 
-0.002250546835484449 
-0.004829121116655068 
-0.003185932360966781 
0.0009517157256568578 
0.02323957613590868 
0.004135865542496652 
0.0009517157256568578 
0.0009090146183984245 
-0.05084428706639883 
0.0442144044949646 
0.0001228788761722608 
0.005990921342860469 
0.0009517157256568578 
-0.0009100697339804913 
0.0009517157256568578 
0.0009517157256568578 
-0.01312815647344576 
0.0009517157256568578 
0.0009517157256568578 
0.0009517157256568578 
0.0009517157256568578 
0.0009517157256568578 
0.0009517157256568578 
0.01167868689675069 
-0.004176577029182447 
-0.007718801865337323 
0.02802326996071113 
0.0009517157256568578 
0.0009517157256568578 
0.0009517157256568578 
-0.01732224647460593 
0.003834876485947422 
-0.004258483705765087 
0.0009517157256568578 
0.01420020632843552 
0.0009517157256568578 
-0.001609438902958322 
0.0009517157256568578 
-0.02635851293551982 
0.0009517157256568578 
0.0009517157256568578 
0.0009517157256568578 
0.0003766212616769945 
0.007232630870741009 
0.0009517157256568578 
-0.006852992169606347 
0.0009517157256568578 
0.0009517157256568578 
0.01067255912130126 
0.0009517157256568578 
0.000898949980996293 
0.002412700307529422 
0.0009517157256568578 
0.0009517157256568578 
-0.001761926681142435 
0.0009517157256568578 
0.005123538153435181 
0.0009517157256568578 
0.006046242989018282 
0.0009517157256568578 
-0.004776383446262343 
0.0003766212616769945 
0.003299782349313689 
0.001133683922435772 
0.0009517157256568578 
-0.002746921337546512 
0.0009517157256568578 
0.0009517157256568578 
0.0009517157256568578 
0.01347466944055236 
0.0009517157256568578 
0.0003852815384095696 
0.000898949980996293 
-0.002980848764190763 
0.0009517157256568578 
0.0009517157256568578 
0.0009517157256568578 
0.0009517157256568578 
0.0009517157256568578 
-0.004521792511904596 
-0.01559066762768894 
0.002793103845356027 
-0.001882253683231763 
0.0009517157256568578 
0.0009517157256568578 
0.0009517157256568578 
0.0009517157256568578 
0.0009517157256568578 
0.03050104202680023 
0.0137722527412765 
0.0318412378600494 
0.0009517157256568578 
0.0009517157256568578 
0.00300456288797174 
0.01823715659994509 
0.0009517157256568578 
0.0009517157256568578 
-0.01208802775240077 
0.0009517157256568578 
0.0009517157256568578 
0.0009517157256568578 
0.0009517157256568578 
0.0009517157256568578 
-0.03278539923917679 
-0.001098449790170344 
-0.003847404556320211 
0.01006941070090807 
0.000898949980996293 
0.0009517157256568578 
0.0009517157256568578 
0.0009517157256568578 
-0.0002478115346767125 
0.0009517157256568578 
-0.03106756451313071 
0.0009517157256568578 
0.0009517157256568578 
0.0009517157256568578 
0.0009517157256568578 
0.01667667966186447 
0.0009517157256568578 
-0.0001755091153723073 
0.0009517157256568578 
0.02004496650942012 
0.0005671774877803021 
0.0009517157256568578 
0.003194864793069109 
0.0009517157256568578 
-0.004287025303796096 
0.0009517157256568578 
0.0009517157256568578 
0.0009517157256568578 
0.005558942578040626 
0.0009517157256568578 
0.0009517157256568578 
0.0009517157256568578 
0.0009517157256568578 
0.0009517157256568578 
0.0009517157256568578 
0.0009517157256568578 
0.0009517157256568578 
0.009040569713398287 
-0.006971504081420787 
0.01267291418655617 
-0.0005161838924442606 
0.0009517157256568578 
0.0009517157256568578 
0.04321636862842107 
0.005600883722566776 
0.0009517157256568578 
-0.002873483927987891 
0.0009517157256568578 
0.006372759564879159 
0.0009517157256568578 
0.001411309645229726 
0.02652734498158222 
0.02075779838338178 
0.0282146352840543 
-0.02005198821789419 
0.0009517157256568578 
0.0009517157256568578 
0.000898949980996293 
-0.005850387435786112 
0.0009517157256568578 
0.0009517157256568578 
0.007184770573709 
0.0009517157256568578 
0.0009517157256568578 
0.0009517157256568578 
0.0009517157256568578 
0.002437162247292725 
-0.00205850933494902 
0.0009517157256568578 
0.02438275033089026 
-0.004147708332334062 
0.0009517157256568578 
0.0009517157256568578 
0.0009517157256568578 
0.0009517157256568578 
0.002487381996292645 
0.01605702356764186 
-0.01488451094726578 
-0.01275724604487305 
0.0009517157256568578 
0.0009517157256568578 
0.0009517157256568578 
-0.0009100697339804913 
-0.00157660383028808 
0.0009517157256568578 
-0.006911243803201873 
0.0004075238587219114 
0.0009517157256568578 
-0.0008969931274367277 
0.004435998243945633 
0.0009517157256568578 
0.001903431451313716 
0.004649509849858242 
0.002450755495768674 
-0.0008376082144472075 
0.002382717921411819 
0.0009517157256568578 
0.0009517157256568578 
-0.01309668927237348 
0.02985990433184628 
0.0009517157256568578 
0.0009517157256568578 
0.04769886312576986 
0.00131742876676311 
0.0009517157256568578 
0.002616856931341218 
0.0009517157256568578 
0.006806599264248421 
0.0009517157256568578 
-0.01055305235627714 
0.01200395566407621 
0.0009517157256568578 
0.01164291177123415 
0.0009517157256568578 
0.003562509204150624 
0.0009517157256568578 
0.002855147176970594 
0.0009517157256568578 
0.0009517157256568578 
0.01334973696963697 
0.0009517157256568578 
-0.01337899983824293 
0.0009517157256568578 
-0.003065442330776271 
0.001801285939976841 
0.0009517157256568578 
0.0009517157256568578 
0.0009517157256568578 
-0.005551269778511684 
0.008489853789744428 
0.001785495979973992 
0.0009517157256568578 
-0.006264339059195927 
0.00382192005468682 
0.002346080115914148 
0.009430101579408391 
0.0009517157256568578 
0.0009517157256568578 
0.0009517157256568578 
0.0007435781803974827 
0.0009517157256568578 
0.04353159170243447 
-0.0026276086354801 
0.006853839813039038 
0.0009517157256568578 
-0.00281633320080328 
0.01418071950956289 
0.01392970881094085 
-0.003654883439478429 
0.002085943238252413 
0.01567806004697007 
0.02956428014583727 
0.0009517157256568578 
0.0009517157256568578 
-0.005942337810723522 
-0.02749259987911005 
-0.001289764297312818 
0.0009517157256568578 
0.005166203861442705 
0.002664032741429987 
-0.06729019273828479 
0.0009517157256568578 
0.004756997260399359 
0.03822314175441165 
0.0311696473796421 
0.02413255544999485 
0.0009517157256568578 
0.001358268229081206 
-0.002145921524641707 
-0.002920458995421554 
0.0001627916860303663 
0.0009517157256568578 
0.0009517157256568578 
0.01467055272994307 
0.01349944860013648 
0.00207070628058687 
0.0009517157256568578 
0.0009517157256568578 
0.0009517157256568578 
-0.03626613062716087 
-0.04684921123665416 
-0.003738112416197825 
0.0009517157256568578 
0.0009517157256568578 
0.007382122006832014 
0.000645876897309706 
0.0009517157256568578 
0.01741789972653351 
-0.004794010177585472 
0.02566614828976379 
0.0009517157256568578 
0.0009517157256568578 
0.01467055272994307 
0.0001707421115247788 
0.0009517157256568578 
0.0009517157256568578 
0.0009517157256568578 
-0.01589507236730207 
0.0009517157256568578 
0.003562509204150624 
-0.00120065762747766 
0.0009517157256568578 
-0.01790190213558707 
0.04578691622901918 
0.0009517157256568578 
-0.01415421069931554 
0.0009517157256568578 
0.02692098866577885 
0.015646900120676 
0.008681901118635111 
0.01704959752964924 
0.0009517157256568578 
0.0009517157256568578 
0.0009517157256568578 
0.0009517157256568578 
0.0009517157256568578 
0.007583923754109273 
-0.003599195898370888 
0.0009517157256568578 
0.0009517157256568578 
-0.001376083466295719 
0.0009517157256568578 
0.002090101316374151 
-0.06889150744837028 
-0.001258273164075266 
-0.05370553657927934 
-0.002218108920430062 
-0.002218108920430062 
-0.04070935657524355 
0.00130098530532415 
0.004272458312337414 
0.01988400426533973 
0.006330255759279446 
-0.01082155044457614 
-0.002218108920430062 
-0.01572906601885144 
-0.005266160031536049 
-2.849070275290894e-05 
-0.002218108920430062 
-0.004436217840860124 
-0.05959566156101111 
-0.004404367547182223 
-0.008625608891848472 
0.0207703489330726 
-0.002282127091886734 
-0.04147854559432569 
-0.01637247230931 
-0.04818851470685993 
-0.002218108920430062 
-0.002218108920430062 
-0.002453661747097774 
-0.002218108920430062 
0.01565206828770062 
-0.01124852400709984 
-0.001283751418712828 
-0.002218108920430062 
-0.002218108920430062 
-0.002218108920430062 
-0.004602193136744681 
0.08611702983302195 
0.009492363482972711 
-0.009039366757050252 
-0.002218108920430062 
-0.03027664207607319 
-0.002218108920430062 
0.04996925573967278 
-0.03966827896071901 
-0.008231733092664494 
0.009069735300623299 
-0.03133723869432958 
-0.002218108920430062 
-0.002218108920430062 
-0.05509931029157057 
-0.06047958104817629 
-0.002218108920430062 
-0.05243062922395523 
0.03412008774804729 
0.009031706313175103 
-0.001140265021265174 
-0.003700062461560561 
-0.008502440869909375 
0.004743704512386963 
0.01395736164659906 
0.1153988131551218 
-0.02607142788121139 
-0.002822057237544178 
-0.02363171669513389 
-0.009779664802471286 
-0.009156103671408714 
-0.002218108920430062 
-0.05671543297559389 
-0.002218108920430062 
-0.004900266894954669 
0.05218132533095289 
0.03037540769902891 
-0.007786900758445644 
0.005412224084035292 
-0.1245780694746374 
-0.002218108920430062 
0.0006504054623273719 
0.008565970185581901 
-0.0006498543788494698 
-0.002095130844341242 
-0.1139225859226234 
-0.01605470398785717 
-0.002095130844341242 
-0.002218108920430062 
0.03224297263628244 
-0.0008021815707124121 
-0.002218108920430062 
-0.002218108920430062 
-0.0008903841013616863 
0.04107659496004425 
0.01068221195048195 
0.003866394226003144 
-0.002218108920430062 
-0.002218108920430062 
0.04088592782756925 
0.01134151479942141 
-0.002218108920430062 
-0.006054024034244027 
-0.007368159486564061 
0.01803594113558451 
0.01405832266808779 
0.01248448733043379 
-0.002218108920430062 
-0.002218108920430062 
-0.01940754370568025 
-0.01768135744954192 
-0.003127122275372898 
-0.002218108920430062 
-0.002218108920430062 
-0.01357507021202647 
-0.004465477406836689 
-0.002218108920430062 
0.007429523552881786 
-0.002218108920430062 
0.01112287594410535 
0.0296205556998183 
-0.002218108920430062 
0.001472281581836795 
-0.0251105700270557 
-0.004070576454187289 
-0.002218108920430062 
-0.0263232999813972 
-0.0008833202577777488 
-0.01875684656497443 
-0.005005873999123805 
-0.009733288848586791 
-0.01071599242915854 
-0.002218108920430062 
0.02208269275949868 
0.002494506058243489 
-0.009259159718853462 
0.001360319963360008 
-0.002218108920430062 
0.006894516370545682 
-0.002218108920430062 
0.003543379902285486 
-0.002218108920430062 
-0.002218108920430062 
0.006088176210532963 
-0.002218108920430062 
-0.002218108920430062 
-0.02267897416094018 
0.04642530698953879 
-0.04560678230855464 
-0.00850026822013215 
-0.00427545313016512 
-0.002218108920430062 
0.000522187800586 
-0.002218108920430062 
-0.002218108920430062 
-0.002218108920430062 
-0.01203459573083225 
-0.002218108920430062 
0.08987938637565329 
0.08554206868207137 
0.004155058043060034 
-0.002218108920430062 
-0.002218108920430062 
-0.002218108920430062 
-0.01197756945968075 
-0.02123335067731422 
-0.001814612252146817 
-0.04270604341268605 
-0.005122742364195117 
0.02163249871756074 
-0.002453661747097774 
0.003176864611737245 
-0.002218108920430062 
0.01893470290875759 
-0.002218108920430062 
-0.002218108920430062 
-0.002218108920430062 
-0.008911786193852446 
-0.002218108920430062 
-0.004556877433330705 
-0.004436217840860124 
-0.002218108920430062 
-0.002218108920430062 
-0.008957904112107035 
-0.04496212587979632 
-0.002218108920430062 
-0.002218108920430062 
-0.02888044337936991 
-0.002218108920430062 
-0.001187554135358565 
-0.002218108920430062 
-0.003819926174914858 
-0.01984073868643716 
-0.002218108920430062 
-0.003576561775733208 
-0.002218108920430062 
-0.002218108920430062 
0.006454133663491386 
-0.002218108920430062 
0.004130836795546745 
-0.03915307818126482 
-0.002218108920430062 
0.01330311810826841 
-0.002218108920430062 
-0.01272157150375786 
-0.002218108920430062 
-0.002218108920430062 
-0.01275636893999521 
-0.002095130844341242 
-0.01002059604095047 
0.003018667572071543 
-0.002218108920430062 
-0.002218108920430062 
0.02814552068340945 
0.02542336034974097 
-0.007745616192926824 
-0.002218108920430062 
-0.002218108920430062 
0.002854847626110899 
-0.002218108920430062 
4.547973639893518e-05 
-0.002218108920430062 
-0.002218108920430062 
-0.002218108920430062 
-0.002218108920430062 
-0.002218108920430062 
-0.002218108920430062 
-0.002218108920430062 
0.02504336592035621 
-0.008842229119778458 
-0.01780189005452563 
-0.03758853469506213 
-0.002218108920430062 
-0.002218108920430062 
-0.002218108920430062 
-0.002218108920430062 
-0.002218108920430062 
-0.002218108920430062 
-0.001499590142344874 
0.01762426861952749 
0.03042242000219151 
0.008091089476758871 
-0.0150232695402391 
-0.002218108920430062 
-0.00847645208352801 
-0.01522724103222981 
-0.002218108920430062 
-0.002218108920430062 
-0.003290688498141497 
0.008731670074929461 
-0.01058747376322023 
-0.002218108920430062 
-0.002218108920430062 
-0.02135394257847861 
-0.005061652049884332 
0.02739866482043715 
0.00297088508025181 
-0.01664917778644721 
-0.01999489099716835 
-0.005541451936471967 
-0.0007792221231758135 
-0.003717240239886026 
-0.002218108920430062 
-0.004792150904216881 
-0.004436217840860124 
-0.002218108920430062 
-0.002218108920430062 
-0.02108551592104613 
-0.02729888917972322 
-0.002218108920430062 
-0.002453661747097774 
0.0008533426393758952 
0.01643275633009902 
-0.04213515896990687 
-0.002218108920430062 
0.03267440884312952 
-0.04240200220463565 
-0.02377754543172401 
-0.002218108920430062 
-0.007607709285902993 
-0.002218108920430062 
0.001937896069987803 
-0.002218108920430062 
-0.01090297995899104 
-0.002218108920430062 
-0.006859181700636991 
0.03372391141624435 
-0.002218108920430062 
-0.02877164952795746 
0.00790932397791144 
0.01401427511908768 
0.00805794254447998 
0.00969410155562952 
0.001110858647150731 
-0.002218108920430062 
-0.00987528830756006 
-0.002218108920430062 
-0.002218108920430062 
-0.00253846373733653 
-0.002218108920430062 
-0.002218108920430062 
0.05457384839665148 
-0.002218108920430062 
-0.002218108920430062 
-0.002218108920430062 
-0.002218108920430062 
0.02559616226959223 
-0.002218108920430062 
-0.001676241423569667 
-0.001546169073603857 
-0.005176491911944985 
-0.002218108920430062 
0.01681530900559793 
-0.002218108920430062 
-0.002218108920430062 
-0.001978824364010094 
-0.002218108920430062 
-0.002218108920430062 
-0.01117822026787219 
-0.002218108920430062 
0.1371970641390557 
-0.002218108920430062 
-0.002218108920430062 
0.01784502307567528 
0.03309327217498596 
-0.002218108920430062 
-0.004249358648845832 
-0.04268264620778164 
-0.002218108920430062 
-0.002218108920430062 
-0.002218108920430062 
-0.003716821222894038 
-0.002218108920430062 
-0.002218108920430062 
-0.002218108920430062 
-0.002218108920430062 
-0.002218108920430062 
0.01387274339437737 
-0.002218108920430062 
-0.005433307038982681 
0.01728458821574605 
0.01067659825185475 
-0.008740196674330019 
0.008798253467684187 
-0.002218108920430062 
-0.002218108920430062 
-0.007297054840692025 
-0.002720185571585695 
0.1000663548884172 
-0.002218108920430062 
0.002399855925420598 
-0.002218108920430062 
-0.0005185507039364859 
0.04041541767835678 
-0.0097831368412003 
-0.002748427480219274 
-0.01115635918354966 
-0.002218108920430062 
-0.002218108920430062 
-0.002218108920430062 
-0.002218108920430062 
-0.001995478647270441 
-0.002218108920430062 
-0.008895573471860244 
0.01782510348820473 
0.0980483863291244 
0.00795909775958745 
-0.04247319684997474 
-0.03009104752586227 
-0.0786545682661748 
0.01348126419051601 
0.02286447210891796 
0.03770490405616192 
0.02286447210891796 
0.02753039853061996 
0.02286447210891796 
-0.003869093777673428 
0.03785916201522588 
0.02286447210891796 
0.02286447210891796 
0.02286447210891796 
0.006236060796323112 
0.01844668060071728 
0.0135252085092651 
0.02286447210891796 
0.01518061417449765 
0.03776097449228925 
0.02143854678635074 
0.01348126419051601 
-0.01331290417210301 
0.02845032595209855 
0.03177318128303035 
-0.09420875487539201 
0.02286447210891796 
0.01767183434500618 
0.02516672906445941 
0.003555348850835318 
0.003555348850835318 
0.003555348850835318 
0.003555348850835318 
0.01439518863619665 
0.003555348850835318 
0.003555348850835318 
0.03809475979584145 
0.05611578294354599 
0.004526309219122168 
0.002861274180449298 
0.01473844744633209 
0.002747724927065843 
0.02925712440279106 
0.006953914670273516 
0.002267654377219093 
-0.015340570862491 
0.02150620980410778 
-0.01431412882711796 
0.0215316618046312 
0.0227905847883093 
0.03930128103778919 
0.003412223203609507 
0.007626886383142541 
0.006380521406859794 
0.01142401621535799 
0.02925712440279106 
0.01837254274182426 
0.0116058401513161 
-0.007477586116538752 
-0.001138592694525168 
0.02541804508254691 
0.008651799947609708 
0.02029783581207881 
-0.02252891021403507 
0.02875515394976337 
0.0116058401513161 
0.0116058401513161 
0.02359629261577167 
0.02925712440279106 
0.02020615255330141 
0.0116058401513161 
-0.006001333852040491 
0.02925712440279106 
0.02041296379680445 
0.02925712440279106 
0.0116058401513161 
0.01070657196200302 
0.06354647344833525 
-0.00302692063211375 
0.0116058401513161 
-0.01017515536980057 
0.008164387092006559 
0.0116058401513161 
0.0116058401513161 
0.0116058401513161 
0.0116058401513161 
0.02950605265287898 
0.02925712440279106 
0.0116058401513161 
0.007914689164101372 
0.0116058401513161 
0.03861137879537703 
0.04429710612168635 
0.04429710612168635 
-0.02163892151118065 
0.06137334465377508 
0.06137334465377508 
0.06447574883745136 
-0.02426352207215766 
0.06137334465377508 
-0.01311516512204779 
-0.01052290759095416 
0.02071443790925554 
-0.09225210191009039 
0.02267953184630542 
-0.03552057278644873 
0.01579207859751114 
0.01864567687449566 
0.02365790953722977 
0.06007722588385127 
0.02238135543502132 
0.02267953184630542 
0.01993711982374732 
0.03849621655299001 
0.02267953184630542 
0.05360657130855949 
0.03592357664569564 
0.009521876294503554 
0.01904648595508331 
-0.004041788099806689 
0.02267953184630542 
0.03200337413393035 
0.03082630753782615 
0.01974513596963842 
0.004979477144694849 
0.03473423357416981 
0.02151626115756364 
0.02267953184630542 
0.04959018998838149 
0.01701853128932821 
0.03093825410511208 
0.02267953184630542 
0.02282441542189388 
-0.04089679765308345 
0.003201281023595986 
0.01441958559698791 
0.01307131430725121 
0.01441958559698791 
0.01441958559698791 
0.02884079111031347 
-0.05611251435475586 
0.06783322092847616 
0.01441958559698791 
-0.003671389771398261 
0.02592248726941298 
0.01441958559698791 
0.007803883560202233 
0.06267166374071541 
0.01441958559698791 
0.04983946259274111 
0.01441958559698791 
0.01441958559698791 
0.01441958559698791 
0.01441958559698791 
0.01441958559698791 
-0.04576905888854517 
0.01441958559698791 
0.01441958559698791 
0.01441958559698791 
0.01441958559698791 
0.01441958559698791 
0.01441958559698791 
0.01441958559698791 
0.01048142804486193 
-0.003914327185944836 
0.0103910907453723 
0.0004310862732842338 
-0.002228017752045864 
-0.01492824632642296 
-0.05103877264836922 
0.01659549892179478 
0.008946065940957516 
-0.01735389569313059 
-0.003546431071318783 
0.002617443452895662 
0.01350024354898245 
0.002617443452895662 
-0.02033886747375871 
-0.0307803418286797 
0.002617443452895662 
0.0001538019827864652 
0.02647228725200639 
0.04262177132513882 
0.02691098816395427 
0.000726138687152232 
-0.06186818456656303 
0.002617443452895662 
0.002617443452895662 
-0.004469615852936312 
-0.0130143065152147 
-0.001424864115158008 
-0.00101486926589924 
-0.00963636848139828 
0.008684183045846856 
0.007528522836759514 
0.02493859922088938 
0.02600566943996022 
0.002617443452895662 
0.002617443452895662 
0.01801079044585605 
0.003340669098138687 
0.002617443452895662 
0.001976885178651046 
0.0112419586680544 
0.002617443452895662 
0.009976297634885755 
0.00617170856830159 
0.00676111989126341 
0.004247621595833169 
-0.002976587140047147 
0.0206546469098051 
0.002617443452895662 
0.004715127759618815 
0.002617443452895662 
-0.00555001699585093 
0.002272578721941488 
0.002617443452895662 
-0.1034983594675946 
0.001472883424414251 
0.002617443452895662 
0.002617443452895662 
0.002617443452895662 
0.00239083962359106 
0.002617443452895662 
0.002617443452895662 
-0.04043260620285585 
0.002617443452895662 
0.005217066451237338 
-0.00715790260086107 
0.01591180222770805 
0.001619760989183214 
0.002617443452895662 
0.01149503804386724 
0.002617443452895662 
0.002617443452895662 
0.002617443452895662 
0.004756281128991606 
0.03258583950279938 
0.002617443452895662 
-0.07064146711209625 
0.002617443452895662 
0.002617443452895662 
0.0008049467889792948 
0.005753330670169617 
-0.02710751629060104 
0.002617443452895662 
0.004162611538251417 
0.002617443452895662 
0.002617443452895662 
0.002617443452895662 
0.01848095133223634 
0.02331694069807868 
0.002617443452895662 
0.002617443452895662 
-0.0003083257826172886 
0.02519767072584115 
0.01780600060613131 
0.002617443452895662 
0.002617443452895662 
-0.05683338435350365 
-0.005321284708151873 
0.002617443452895662 
0.002617443452895662 
0.002617443452895662 
0.005736249321785491 
0.03946345990588662 
0.002617443452895662 
-0.01689385808389791 
0.009551469031454478 
-0.003410558971618936 
-0.001298701699533316 
0.0112419586680544 
0.01544869041471408 
0.01593048483106761 
-0.007238442322620415 
0.002617443452895662 
-0.02583143705219533 
0.002617443452895662 
-0.002452045688305366 
0.002617443452895662 
0.01672986379198815 
-8.6509257941397e-05 
0.001346383152646564 
0.002617443452895662 
0.002617443452895662 
0.01465226872379505 
0.002617443452895662 
0.002617443452895662 
0.004038607316444752 
0.00534734041134626 
0.002617443452895662 
0.002617443452895662 
-0.02293837404559307 
0.1467132717681595 
0.009677743863907727 
0.007916187460965928 
0.0126633040222221 
-0.0002184745757075587 
-0.09316698530240068 
-0.004446758575781576 
0.02048285307134999 
-0.006891789033956307 
0.005147073078709391 
0.02822776933023519 
0.01788329879319106 
0.005147073078709391 
0.0279426918986729 
0.0002103200896773977 
0.03040391366393448 
-0.09943565125124894 
0.005147073078709391 
-0.005443450527390015 
-0.03345077495205349 
0.03211899575205755 
0.007026068153743993 
-0.004162727247108601 
0.06565819723565847 
-0.02731271612161432 
-0.0001565891597691162 
0.01073019289096177 
0.003906167861330929 
0.05160454435502259 
0.005147073078709391 
0.0023884433773238 
0.02233315637487666 
0.005147073078709391 
0.005147073078709391 
-0.01527979009713752 
0.005147073078709391 
0.007777335525085423 
0.0183260775599166 
0.005147073078709391 
0.004130162068393696 
-0.00296963569628543 
0.004774428114750057 
0.005147073078709391 
-0.01891794948920548 
0.0331874537047416 
0.08735403160381164 
0.005147073078709391 
0.001813359769173621 
0.005147073078709391 
-0.006918826738862813 
0.005147073078709391 
0.005147073078709391 
0.008210678158718961 
0.005147073078709391 
0.06553172154417725 
0.003076929230182265 
0.02941443215218527 
-0.01880146589387213 
0.005147073078709391 
0.005147073078709391 
0.0331435870771706 
0.005147073078709391 
0.005147073078709391 
-0.004226754602206064 
0.005147073078709391 
-0.00464506923426099 
0.007193278244534695 
0.004861705151608013 
0.01314447819793162 
-0.0645941848395778 
-0.0001944744959774412 
0.005147073078709391 
0.01865216942213369 
0.005147073078709391 
0.005147073078709391 
0.005280594572379595 
0.005147073078709391 
0.001479763689430123 
0.03404333924531749 
0.01804773243464739 
0.006690921426425405 
0.01585496739604448 
-0.02119543608659991 
0.007916187460965928 
0.005147073078709391 
0.03484556791952364 
0.005147073078709391 
0.005147073078709391 
0.005147073078709391 
0.005147073078709391 
0.005147073078709391 
0.01481509571893725 
0.005147073078709391 
-0.009191288746160115 
0.005147073078709391 
-0.02191850972045722 
0.006879218567163996 
-0.02115045640738255 
0.008616692505005815 
-0.01044570097101914 
-0.01815536831579816 
0.01148236792064752 
0.005147073078709391 
0.06583478445582261 
0.005147073078709391 
0.005147073078709391 
0.005147073078709391 
0.01347705927550993 
0.009966250437336675 
0.05277143834163847 
-0.002918899949116112 
-0.1073133204794954 
0.04406455763712659 
0.01358853023277058 
-0.01024679618891581 
0.003675879783121954 
0.009966250437336675 
0.009966250437336675 
0.009966250437336675 
0.009966250437336675 
0.009966250437336675 
0.08763531855986191 
0.009966250437336675 
0.003083185474938816 
0.01905083945661652 
-0.02344672376162159 
0.009966250437336675 
0.01130784789055077 
0.009966250437336675 
0.01211483343070506 
0.02796343996340912 
0.03019844107382451 
0.01654930674263279 
0.009966250437336675 
0.01057582932861814 
0.03098028435869037 
0.01782192247922161 
0.009966250437336675 
0.009966250437336675 
0.005287567717880995 
0.02256419850175709 
0.009966250437336675 
0.007774367938484957 
0.009966250437336675 
0.0295478492782742 
0.01027982340253246 
0.009966250437336675 
0.01321994850337288 
0.01604978190092561 
0.005476442785443174 
0.008618251161771293 
0.005521359870232074 
0.02041693979521235 
0.01600336941320119 
0.01054820978000406 
0.05545068013369583 
0.008618251161771293 
0.008618251161771293 
0.01604978190092561 
0.1078955392635657 
0.01667390487549149 
0.02324969800502063 
0.008618251161771293 
0.01604978190092561 
0.01498960105953625 
0.01604978190092561 
0.008618251161771293 
0.008618251161771293 
0.01439248164243026 
0.008618251161771293 
0.008618251161771293 
0.01845278445062671 
0.008618251161771293 
0.01050675624749832 
0.008618251161771293 
0.01083845218237993 
0.0256081253412604 
0.04191332625622486 
0.01604978190092561 
0.008618251161771293 
0.008618251161771293 
0.008618251161771293 
0.007659940685093533 
0.01768750636304728 
0.03029902963334531 
0.008618251161771293 
0.008351260398827064 
0.1132112760951513 
0.009889940055906607 
0.02110092945777892 
0.009889940055906607 
0.009889940055906607 
0.007762736253990018 
0.00867043383170886 
0.01170437681606527 
0.009889940055906607 
0.009889940055906607 
0.003819585090290112 
0.006814137156904192 
-0.04150450242981316 
0.01323506419991169 
0.009889940055906607 
0.07266934853370242 
0.009889940055906607 
0.009889940055906607 
0.03439149047901151 
-0.001651926801263637 
0.009889940055906607 
0.0203027472891901 
0.009889940055906607 
0.009889940055906607 
0.009889940055906607 
0.04376540623108862 
0.009889940055906607 
0.009889940055906607 
0.009889940055906607 
0.06856330730185903 
0.009889940055906607 
0.009889940055906607 
0.009889940055906607 
0.009889940055906607 
0.009889940055906607 
0.009889940055906607 
0.009889940055906607 
0.1266220378573674 
0.009889940055906607 
0.099794487009347 
0.05842721183958911 
-0.03934190528551776 
0.06190855644909353 
-0.01877755488290761 
-0.006857931771867444 
-0.01293513814038207 
0.006912844915375646 
-0.03376476466819685 
-0.006677017891724935 
-0.001994218787441779 
-0.008891863534894667 
-0.001696176720658131 
-0.02359218583727729 
-0.001696176720658131 
-0.015468785594964 
-0.0221746077905982 
-0.0006111716585523949 
-0.005777340511840788 
-0.001696176720658131 
-0.05401235424275971 
0.03495149164585706 
-0.003392353441316262 
-0.001696176720658131 
-0.00182778445998404 
-0.001696176720658131 
-0.0003491601900097431 
0.04575874038096133 
0.003605215558126605 
0.1547719279867329 
0.00487139022393515 
0.04060565780060337 
-0.006749039780781424 
-0.006052329094718883 
0.0005298793142121272 
-0.02759202156304254 
-0.003333413238188638 
0.1196169772588895 
0.01338028457424644 
-0.001696176720658131 
-0.001696176720658131 
-0.001696176720658131 
-0.0003814518768190609 
-0.001696176720658131 
-0.001696176720658131 
0.001165584059030192 
-0.001696176720658131 
-0.01714974373868371 
-0.002553795998720658 
-0.001696176720658131 
-0.001649122737552369 
-0.00147004480264633 
-0.001696176720658131 
-0.02318977908331721 
-0.001696176720658131 
-0.0003204634628026951 
0.02925630101884468 
-0.007768150594925976 
-0.001696176720658131 
-0.02320303416060292 
0.05395641405961997 
0.02767647435126019 
-0.005800272311174947 
8.842035256597534e-05 
-0.04871437006385382 
-0.005777340511840788 
-0.01154291976397587 
-0.001696176720658131 
-0.001696176720658131 
-0.001696176720658131 
0.003562481048525655 
0.02244190859617317 
-0.004490902849661227 
-0.001696176720658131 
0.02301854290301132 
-0.001696176720658131 
-0.001696176720658131 
-0.001696176720658131 
-0.001696176720658131 
-0.001696176720658131 
0.06494297545578379 
-0.001696176720658131 
0.0004134764573863444 
-0.001696176720658131 
-0.001696176720658131 
-0.01009632197713313 
-0.06545634028487102 
-0.001696176720658131 
-0.001696176720658131 
-0.009654105158598462 
0.002097425652692768 
-0.001696176720658131 
-0.001696176720658131 
-0.012565754404453 
-0.001696176720658131 
-0.04706552352811517 
-0.001696176720658131 
0.07992295285323188 
-0.001696176720658131 
0.002659273849935345 
-0.001696176720658131 
-0.001696176720658131 
-0.001696176720658131 
0.0237700324268557 
0.04243176271788497 
-0.001696176720658131 
-0.001696176720658131 
0.001953539915085791 
0.03831077431489992 
0.06598853322132049 
-0.007936953630015823 
-0.0026107866630704 
-0.001696176720658131 
0.02693279429711995 
-0.001696176720658131 
-0.001696176720658131 
0.0294766557998395 
0.0008856530714299209 
-0.004030659962065665 
0.03121695415669929 
-0.01503070547309503 
0.005494235501224689 
-0.004506556820958678 
-0.007890981573244802 
-0.001696176720658131 
-0.01063314819193097 
-0.008213817706233041 
-0.01056486853883224 
-0.01878568510855927 
-0.02240806474718914 
0.08860800712113472 
-0.001209987545985828 
-0.02240806474718914 
0.003764035181271012 
0.02551286238653681 
0.03636928683801655 
0.05338135339354691 
0.03085628377074896 
0.02731376789273028 
0.02731376789273028 
0.02731376789273028 
0.02562981294910062 
0.03290341439639677 
0.02731376789273028 
0.02731376789273028 
0.01952679383760438 
0.02731376789273028 
0.01148625847380784 
0.01373935463885592 
0.01867814068025728 
-0.0001159980739364924 
0.004706749898890591 
-0.00580747361891791 
0.04033367715616202 
0.03502692965954316 
-0.03780486224802594 
0.008652555008810976 
0.09811535645475493 
0.0454882942521181 
0.00721437042532681 
0.0220965486019525 
0.01833549945903161 
0.009312868321037841 
0.006482613338510823 
0.00823919437937732 
0.001930967740640119 
-0.002182003646207585 
0.00721437042532681 
-0.0002443478134129819 
0.00721437042532681 
0.00721437042532681 
0.00721437042532681 
0.0416615158083973 
0.00721437042532681 
0.0114673643671878 
0.006814385831726815 
-0.01382023055946381 
0.006611831253110499 
0.05443114752185539 
0.00721437042532681 
-0.01341630576399922 
0.00721437042532681 
0.00721437042532681 
0.02420984600697817 
0.02048577060550874 
0.007320682589313539 
0.01421061751253773 
0.00721437042532681 
0.00721437042532681 
0.01760025735380486 
0.00721437042532681 
-8.832604608349759e-05 
0.01354045878087704 
0.01098106574200282 
0.01609258345595012 
0.01266408584173323 
0.00721437042532681 
0.004731376312435338 
0.03973331509905981 
0.00721437042532681 
0.00823919437937732 
0.006814385831726815 
0.00721437042532681 
-0.01737897175546419 
0.004381274397241659 
0.0147056489126219 
-0.01531199494169246 
0.003052720947325012 
0.004971579972334031 
0.01557430295866083 
-0.004190340819518869 
0.00721437042532681 
0.01363771731931358 
0.003173883208962259 
0.002504358267029964 
0.00721437042532681 
-0.005817016588042515 
0.00721437042532681 
0.01338733032435726 
0.00721437042532681 
0.02408168704309026 
0.003656275879276076 
0.0148385630677371 
0.02005910756675344 
0.004925980236412839 
-0.02860890910601842 
-0.001729159474815533 
0.00451256291594789 
-0.04037359502481199 
0.005467427940456454 
0.004819257265787321 
-0.01165957645770847 
0.0310608882135284 
-0.05309289347874247 
0.007442982837562646 
0.007442982837562646 
-0.01673017606569698 
-0.03833386971908188 
-0.1443990605726477 
0.03512595492621643 
-0.003937267515886145 
0.007442982837562646 
0.007442982837562646 
0.001945363433821644 
-0.0144440185152068 
0.02727304116037427 
0.005072269157035264 
0.004509935953805782 
0.007442982837562646 
0.007442982837562646 
-0.03501999734531819 
0.008248467735168083 
0.001718258721319708 
0.007442982837562646 
0.007442982837562646 
0.007301723757794548 
0.007442982837562646 
0.006690100498433511 
0.007442982837562646 
0.007442982837562646 
0.001177340491057197 
0.007442982837562646 
0.007442982837562646 
0.01550132770085241 
0.02278270878913848 
0.007442982837562646 
0.007442982837562646 
0.007442982837562646 
0.002890669457260607 
0.007442982837562646 
0.007442982837562646 
0.007442982837562646 
0.007442982837562646 
0.007442982837562646 
0.007442982837562646 
0.007442982837562646 
0.007442982837562646 
0.007442982837562646 
0.003345853428042606 
0.007442982837562646 
0.007442982837562646 
0.007301723757794548 
0.005825958851590389 
0.008822356039656351 
0.007442982837562646 
0.007442982837562646 
-0.008262170869991993 
0.007442982837562646 
-0.01259607679644906 
0.007442982837562646 
0.00151726667097394 
0.007442982837562646 
0.009861516315785988 
-0.006270682044184635 
-0.01131743979943742 
0.007442982837562646 
0.00632496333762385 
0.007442982837562646 
0.007442982837562646 
0.007442982837562646 
0.007442982837562646 
-0.01615974941315569 
-0.003567264662959932 
0.007442982837562646 
0.0484411094577535 
0.007442982837562646 
-0.04641809418184938 
0.007442982837562646 
0.001595973499295249 
0.007442982837562646 
0.01014833320284369 
0.007442982837562646 
0.007442982837562646 
0.007442982837562646 
-0.002599850056011568 
0.007442982837562646 
0.007442982837562646 
0.007442982837562646 
0.03872929996964442 
0.006272909926330558 
0.006272909926330558 
-0.0174787638283515 
0.008275404606057165 
0.005426438188562576 
0.008751636240397464 
-0.004910425876490961 
-0.04821401430016034 
0.01324226176338627 
0.04543454547262352 
0.006272909926330558 
0.005512704313866567 
0.01112953916045777 
0.006272909926330558 
0.006272909926330558 
0.0006833910143935239 
0.006272909926330558 
0.02335061198703133 
0.007766970518588837 
0.006272909926330558 
0.006272909926330558 
0.006272909926330558 
0.006272909926330558 
-0.02905919267305985 
0.01922456174427095 
-0.004744578837437208 
0.006272909926330558 
0.003404003092039979 
-0.002741098568236614 
0.003987143164562481 
0.0008502558861907352 
0.008721255599728655 
0.008960662038266927 
0.007826517989726983 
0.006447831607542157 
0.006272909926330558 
0.006272909926330558 
0.006272909926330558 
0.01501576386038455 
0.006272909926330558 
0.006272909926330558 
0.006272909926330558 
-0.01807964541931252 
0.006272909926330558 
0.03114420488080429 
0.001481601975408266 
0.01129715311480899 
-0.03979712006521968 
0.006272909926330558 
0.03262862366286221 
0.007178453462781051 
0.005927586162270262 
-0.01186405847069124 
0.03384559730046584 
0.006272909926330558 
0.006272909926330558 
0.03750483821233323 
-0.001542879371910488 
-0.05243017113363974 
0.004385533886337674 
0.01059242807560713 
-0.002054131294460563 
0.01244993714324769 
-0.002054131294460563 
-0.002054131294460563 
-0.003996488438138932 
-0.002054131294460563 
0.010169979167981 
-0.002054131294460563 
-0.04380175311042234 
-0.002054131294460563 
0.003767478207431722 
-0.002054131294460563 
0.04250738450983413 
0.002143681167951777 
0.0219238981660807 
-0.002054131294460563 
0.071849341165572 
-0.009551780961175045 
0.01717925533754414 
-0.002054131294460563 
-0.02770325588502943 
-0.002054131294460563 
-0.02181074457497291 
0.008560086910100984 
-0.0007785304331938238 
-0.002054131294460563 
-0.002054131294460563 
-0.002054131294460563 
0.003289927768393815 
-0.02004237279319398 
-0.002054131294460563 
0.02317924326542017 
-0.002054131294460563 
-0.05191986395634612 
0.01717925533754414 
-0.002054131294460563 
-0.002054131294460563 
-0.002527218199923085 
-0.002054131294460563 
-0.002054131294460563 
-0.002054131294460563 
0.004203062143310542 
-0.002054131294460563 
-0.002054131294460563 
-0.002054131294460563 
-0.005072929365433688 
0.006226163224443929 
-0.002054131294460563 
-0.002054131294460563 
-0.002054131294460563 
0.02418728281089857 
-0.002054131294460563 
0.007397488381092769 
-0.002054131294460563 
-0.002054131294460563 
-0.00816899064961126 
-0.002054131294460563 
-0.002054131294460563 
-0.002054131294460563 
-0.002054131294460563 
0.04593477357220311 
-0.002054131294460563 
-0.04766856061106164 
0.008530148894667487 
-0.002054131294460563 
-0.001876295927394954 
-0.002054131294460563 
-0.007579708505641462 
-0.004952128791890632 
-0.002054131294460563 
-1.843204765972743e-05 
-0.004443686189458838 
-0.002054131294460563 
-0.03551022056705186 
-0.03132288620360186 
-0.002054131294460563 
0.003894257848224568 
0.007900512442014552 
-0.002054131294460563 
0.08231869028821662 
-0.002396973324092176 
-0.002054131294460563 
-0.002054131294460563 
-0.002054131294460563 
-0.002054131294460563 
-0.002054131294460563 
0.002256434526405574 
-0.002054131294460563 
-0.02908421231852007 
-0.002054131294460563 
-0.002054131294460563 
-0.002054131294460563 
-0.002054131294460563 
-0.0005477154195507395 
-0.002054131294460563 
0.004145857315405442 
0.03030958315623523 
0.03494823552051898 
0.03494823552051898 
0.02071000991313994 
-0.01505801841360196 
0.03494823552051898 
0.02989601183168647 
0.02800274012404159 
0.03494823552051898 
0.03494823552051898 
0.03494426696415586 
0.03494823552051898 
0.02744567703924558 
0.0116100794551444 
-0.01690167019376207 
0.0116100794551444 
0.0116100794551444 
-0.009649100839105751 
-0.05307386397803509 
0.05447742103127987 
0.0116100794551444 
-0.02051349677084074 
0.0116100794551444 
-0.01971013690536923 
-0.030645054568988 
0.04621729320325596 
0.0116100794551444 
0.0116100794551444 
0.1153110027758778 
0.0116100794551444 
0.0116100794551444 
0.001482560882443722 
0.0812212829519548 
-0.01744695941452796 
0.01235221163525802 
0.0116100794551444 
-0.0590452776860771 
0.0089279167015144 
0.001341020559578508 
0.004148544938631169 
0.002403609109736271 
0.01282540931879173 
0.0116100794551444 
0.02836285727768117 
0.0116100794551444 
-0.01274292131380159 
0.01741143351494674 
-0.003633993816948419 
0.0116100794551444 
0.01124380415746326 
0.008449238068559135 
0.0116100794551444 
0.006703485920841788 
0.0116100794551444 
0.009802628614304702 
0.007555982460890217 
0.01227667423310437 
0.0116100794551444 
0.0116100794551444 
0.0116100794551444 
0.0116100794551444 
0.00598082372094799 
-0.04209622314521448 
0.02257634324717387 
0.01958787013099801 
0.03891883403174823 
-0.1015356690521366 
-0.006274340823513767 
0.02215334647460326 
-0.002474271783352466 
-0.02236698424514071 
-0.01421636602209543 
0.0007452586101651478 
-0.05138296173612383 
0.04958321316648776 
0.01053966005456805 
0.01386953292660307 
0.02007681656051981 
0.01423876779875294 
0.003683512633223693 
0.02007681656051981 
0.0004182896033448529 
-0.002529908272920809 
0.002849498401464812 
-0.008931734389242533 
0.02007681656051981 
0.02007681656051981 
0.03124453673955011 
0.006875116871775385 
0.04065716036891005 
0.02007681656051981 
0.02007681656051981 
-0.01793172281193834 
0.02007681656051981 
-0.001923148665987223 
0.006875116871775385 
0.01645807482525497 
0.03367229525088336 
0.02007681656051981 
0.02648101412346072 
0.02007681656051981 
0.02007681656051981 
0.02007681656051981 
-0.004016968211342317 
0.02007681656051981 
0.01511378082877873 
0.02007681656051981 
0.02007681656051981 
0.02007681656051981 
0.04958321316648776 
0.01565331442215493 
0.01565331442215493 
-0.03195299914084982 
0.0384500305868002 
-0.3607659577143687 
0.005810609728814291 
0.04142662210348582 
0.01304554561802027 
0.01681960014732779 
0.02634477689536809 
0.01565331442215493 
0.04022478215149571 
0.01522845797600214 
-0.01221083029259706 
0.01478545149877934 
0.02339042215793655 
0.01614590494707867 
0.01565331442215493 
